<?xml version="1.0"?>
<MethodSetup Method="BDT::BDT8">
  <GeneralInfo>
    <Info name="TMVA Release" value="4.2.1 [262657]"/>
    <Info name="ROOT Release" value="6.06/00 [394752]"/>
    <Info name="Creator" value="student"/>
    <Info name="Date" value="Mon May 21 04:06:52 2018"/>
    <Info name="Host" value="Linux ec-ubuntu-14-04-x86-64-2 3.13.0-37-generic #64-Ubuntu SMP Mon Sep 22 21:28:38 UTC 2014 x86_64 x86_64 x86_64 GNU/Linux"/>
    <Info name="Dir" value="/home/student/Documents/prop_interface"/>
    <Info name="Training events" value="60000"/>
    <Info name="TrainingTime" value="1.42759628e+03"/>
    <Info name="AnalysisType" value="Classification"/>
  </GeneralInfo>
  <Options>
    <Option name="V" modified="No">False</Option>
    <Option name="VerbosityLevel" modified="No">Default</Option>
    <Option name="VarTransform" modified="No">None</Option>
    <Option name="H" modified="No">False</Option>
    <Option name="CreateMVAPdfs" modified="No">False</Option>
    <Option name="IgnoreNegWeightsInTraining" modified="No">False</Option>
    <Option name="NTrees" modified="No">800</Option>
    <Option name="MaxDepth" modified="No">3</Option>
    <Option name="MinNodeSize" modified="No">5%</Option>
    <Option name="nCuts" modified="No">20</Option>
    <Option name="BoostType" modified="No">AdaBoost</Option>
    <Option name="AdaBoostR2Loss" modified="No">quadratic</Option>
    <Option name="UseBaggedBoost" modified="No">False</Option>
    <Option name="Shrinkage" modified="No">1.000000e+00</Option>
    <Option name="AdaBoostBeta" modified="No">5.000000e-01</Option>
    <Option name="UseRandomisedTrees" modified="No">False</Option>
    <Option name="UseNvars" modified="No">21</Option>
    <Option name="UsePoissonNvars" modified="No">True</Option>
    <Option name="BaggedSampleFraction" modified="No">6.000000e-01</Option>
    <Option name="UseYesNoLeaf" modified="No">True</Option>
    <Option name="NegWeightTreatment" modified="No">inverseboostnegweights</Option>
    <Option name="Css" modified="No">1.000000e+00</Option>
    <Option name="Cts_sb" modified="No">1.000000e+00</Option>
    <Option name="Ctb_ss" modified="No">1.000000e+00</Option>
    <Option name="Cbb" modified="No">1.000000e+00</Option>
    <Option name="NodePurityLimit" modified="No">5.000000e-01</Option>
    <Option name="SeparationType" modified="No">giniindex</Option>
    <Option name="DoBoostMonitor" modified="No">False</Option>
    <Option name="UseFisherCuts" modified="No">False</Option>
    <Option name="MinLinCorrForFisher" modified="No">8.000000e-01</Option>
    <Option name="UseExclusiveVars" modified="No">False</Option>
    <Option name="DoPreselection" modified="No">False</Option>
    <Option name="SigToBkgFraction" modified="No">1.000000e+00</Option>
    <Option name="PruneMethod" modified="No">nopruning</Option>
    <Option name="PruneStrength" modified="No">0.000000e+00</Option>
    <Option name="PruningValFraction" modified="No">5.000000e-01</Option>
    <Option name="nEventsMin" modified="No">0</Option>
    <Option name="UseBaggedGrad" modified="No">False</Option>
    <Option name="GradBaggingFraction" modified="No">6.000000e-01</Option>
    <Option name="UseNTrainEvents" modified="No">0</Option>
    <Option name="NNodesMax" modified="No">0</Option>
  </Options>
  <Variables NVar="430">
    <Variable VarIndex="0" Expression="pixel95" Label="pixel95" Title="pixel95" Unit="units" Internal="pixel95" Type="F" Min="0.00000000e+00" Max="2.55000000e+02"/>
    <Variable VarIndex="1" Expression="pixel96" Label="pixel96" Title="pixel96" Unit="units" Internal="pixel96" Type="F" Min="0.00000000e+00" Max="2.55000000e+02"/>
    <Variable VarIndex="2" Expression="pixel100" Label="pixel100" Title="pixel100" Unit="units" Internal="pixel100" Type="F" Min="0.00000000e+00" Max="2.55000000e+02"/>
    <Variable VarIndex="3" Expression="pixel103" Label="pixel103" Title="pixel103" Unit="units" Internal="pixel103" Type="F" Min="0.00000000e+00" Max="2.55000000e+02"/>
    <Variable VarIndex="4" Expression="pixel118" Label="pixel118" Title="pixel118" Unit="units" Internal="pixel118" Type="F" Min="0.00000000e+00" Max="2.55000000e+02"/>
    <Variable VarIndex="5" Expression="pixel119" Label="pixel119" Title="pixel119" Unit="units" Internal="pixel119" Type="F" Min="0.00000000e+00" Max="2.55000000e+02"/>
    <Variable VarIndex="6" Expression="pixel120" Label="pixel120" Title="pixel120" Unit="units" Internal="pixel120" Type="F" Min="0.00000000e+00" Max="2.55000000e+02"/>
    <Variable VarIndex="7" Expression="pixel121" Label="pixel121" Title="pixel121" Unit="units" Internal="pixel121" Type="F" Min="0.00000000e+00" Max="2.55000000e+02"/>
    <Variable VarIndex="8" Expression="pixel122" Label="pixel122" Title="pixel122" Unit="units" Internal="pixel122" Type="F" Min="0.00000000e+00" Max="2.55000000e+02"/>
    <Variable VarIndex="9" Expression="pixel123" Label="pixel123" Title="pixel123" Unit="units" Internal="pixel123" Type="F" Min="0.00000000e+00" Max="2.55000000e+02"/>
    <Variable VarIndex="10" Expression="pixel124" Label="pixel124" Title="pixel124" Unit="units" Internal="pixel124" Type="F" Min="0.00000000e+00" Max="2.55000000e+02"/>
    <Variable VarIndex="11" Expression="pixel125" Label="pixel125" Title="pixel125" Unit="units" Internal="pixel125" Type="F" Min="0.00000000e+00" Max="2.55000000e+02"/>
    <Variable VarIndex="12" Expression="pixel126" Label="pixel126" Title="pixel126" Unit="units" Internal="pixel126" Type="F" Min="0.00000000e+00" Max="2.55000000e+02"/>
    <Variable VarIndex="13" Expression="pixel127" Label="pixel127" Title="pixel127" Unit="units" Internal="pixel127" Type="F" Min="0.00000000e+00" Max="2.55000000e+02"/>
    <Variable VarIndex="14" Expression="pixel128" Label="pixel128" Title="pixel128" Unit="units" Internal="pixel128" Type="F" Min="0.00000000e+00" Max="2.55000000e+02"/>
    <Variable VarIndex="15" Expression="pixel129" Label="pixel129" Title="pixel129" Unit="units" Internal="pixel129" Type="F" Min="0.00000000e+00" Max="2.55000000e+02"/>
    <Variable VarIndex="16" Expression="pixel131" Label="pixel131" Title="pixel131" Unit="units" Internal="pixel131" Type="F" Min="0.00000000e+00" Max="2.55000000e+02"/>
    <Variable VarIndex="17" Expression="pixel132" Label="pixel132" Title="pixel132" Unit="units" Internal="pixel132" Type="F" Min="0.00000000e+00" Max="2.55000000e+02"/>
    <Variable VarIndex="18" Expression="pixel133" Label="pixel133" Title="pixel133" Unit="units" Internal="pixel133" Type="F" Min="0.00000000e+00" Max="2.55000000e+02"/>
    <Variable VarIndex="19" Expression="pixel146" Label="pixel146" Title="pixel146" Unit="units" Internal="pixel146" Type="F" Min="0.00000000e+00" Max="2.55000000e+02"/>
    <Variable VarIndex="20" Expression="pixel147" Label="pixel147" Title="pixel147" Unit="units" Internal="pixel147" Type="F" Min="0.00000000e+00" Max="2.55000000e+02"/>
    <Variable VarIndex="21" Expression="pixel148" Label="pixel148" Title="pixel148" Unit="units" Internal="pixel148" Type="F" Min="0.00000000e+00" Max="2.55000000e+02"/>
    <Variable VarIndex="22" Expression="pixel149" Label="pixel149" Title="pixel149" Unit="units" Internal="pixel149" Type="F" Min="0.00000000e+00" Max="2.55000000e+02"/>
    <Variable VarIndex="23" Expression="pixel150" Label="pixel150" Title="pixel150" Unit="units" Internal="pixel150" Type="F" Min="0.00000000e+00" Max="2.55000000e+02"/>
    <Variable VarIndex="24" Expression="pixel151" Label="pixel151" Title="pixel151" Unit="units" Internal="pixel151" Type="F" Min="0.00000000e+00" Max="2.55000000e+02"/>
    <Variable VarIndex="25" Expression="pixel152" Label="pixel152" Title="pixel152" Unit="units" Internal="pixel152" Type="F" Min="0.00000000e+00" Max="2.55000000e+02"/>
    <Variable VarIndex="26" Expression="pixel153" Label="pixel153" Title="pixel153" Unit="units" Internal="pixel153" Type="F" Min="0.00000000e+00" Max="2.55000000e+02"/>
    <Variable VarIndex="27" Expression="pixel154" Label="pixel154" Title="pixel154" Unit="units" Internal="pixel154" Type="F" Min="0.00000000e+00" Max="2.55000000e+02"/>
    <Variable VarIndex="28" Expression="pixel155" Label="pixel155" Title="pixel155" Unit="units" Internal="pixel155" Type="F" Min="0.00000000e+00" Max="2.55000000e+02"/>
    <Variable VarIndex="29" Expression="pixel156" Label="pixel156" Title="pixel156" Unit="units" Internal="pixel156" Type="F" Min="0.00000000e+00" Max="2.55000000e+02"/>
    <Variable VarIndex="30" Expression="pixel157" Label="pixel157" Title="pixel157" Unit="units" Internal="pixel157" Type="F" Min="0.00000000e+00" Max="2.55000000e+02"/>
    <Variable VarIndex="31" Expression="pixel158" Label="pixel158" Title="pixel158" Unit="units" Internal="pixel158" Type="F" Min="0.00000000e+00" Max="2.55000000e+02"/>
    <Variable VarIndex="32" Expression="pixel159" Label="pixel159" Title="pixel159" Unit="units" Internal="pixel159" Type="F" Min="0.00000000e+00" Max="2.55000000e+02"/>
    <Variable VarIndex="33" Expression="pixel160" Label="pixel160" Title="pixel160" Unit="units" Internal="pixel160" Type="F" Min="0.00000000e+00" Max="2.55000000e+02"/>
    <Variable VarIndex="34" Expression="pixel161" Label="pixel161" Title="pixel161" Unit="units" Internal="pixel161" Type="F" Min="0.00000000e+00" Max="2.55000000e+02"/>
    <Variable VarIndex="35" Expression="pixel162" Label="pixel162" Title="pixel162" Unit="units" Internal="pixel162" Type="F" Min="0.00000000e+00" Max="2.55000000e+02"/>
    <Variable VarIndex="36" Expression="pixel172" Label="pixel172" Title="pixel172" Unit="units" Internal="pixel172" Type="F" Min="0.00000000e+00" Max="2.55000000e+02"/>
    <Variable VarIndex="37" Expression="pixel173" Label="pixel173" Title="pixel173" Unit="units" Internal="pixel173" Type="F" Min="0.00000000e+00" Max="2.55000000e+02"/>
    <Variable VarIndex="38" Expression="pixel174" Label="pixel174" Title="pixel174" Unit="units" Internal="pixel174" Type="F" Min="0.00000000e+00" Max="2.55000000e+02"/>
    <Variable VarIndex="39" Expression="pixel175" Label="pixel175" Title="pixel175" Unit="units" Internal="pixel175" Type="F" Min="0.00000000e+00" Max="2.55000000e+02"/>
    <Variable VarIndex="40" Expression="pixel176" Label="pixel176" Title="pixel176" Unit="units" Internal="pixel176" Type="F" Min="0.00000000e+00" Max="2.55000000e+02"/>
    <Variable VarIndex="41" Expression="pixel177" Label="pixel177" Title="pixel177" Unit="units" Internal="pixel177" Type="F" Min="0.00000000e+00" Max="2.55000000e+02"/>
    <Variable VarIndex="42" Expression="pixel178" Label="pixel178" Title="pixel178" Unit="units" Internal="pixel178" Type="F" Min="0.00000000e+00" Max="2.55000000e+02"/>
    <Variable VarIndex="43" Expression="pixel179" Label="pixel179" Title="pixel179" Unit="units" Internal="pixel179" Type="F" Min="0.00000000e+00" Max="2.55000000e+02"/>
    <Variable VarIndex="44" Expression="pixel180" Label="pixel180" Title="pixel180" Unit="units" Internal="pixel180" Type="F" Min="0.00000000e+00" Max="2.55000000e+02"/>
    <Variable VarIndex="45" Expression="pixel181" Label="pixel181" Title="pixel181" Unit="units" Internal="pixel181" Type="F" Min="0.00000000e+00" Max="2.55000000e+02"/>
    <Variable VarIndex="46" Expression="pixel182" Label="pixel182" Title="pixel182" Unit="units" Internal="pixel182" Type="F" Min="0.00000000e+00" Max="2.55000000e+02"/>
    <Variable VarIndex="47" Expression="pixel183" Label="pixel183" Title="pixel183" Unit="units" Internal="pixel183" Type="F" Min="0.00000000e+00" Max="2.55000000e+02"/>
    <Variable VarIndex="48" Expression="pixel184" Label="pixel184" Title="pixel184" Unit="units" Internal="pixel184" Type="F" Min="0.00000000e+00" Max="2.55000000e+02"/>
    <Variable VarIndex="49" Expression="pixel185" Label="pixel185" Title="pixel185" Unit="units" Internal="pixel185" Type="F" Min="0.00000000e+00" Max="2.55000000e+02"/>
    <Variable VarIndex="50" Expression="pixel186" Label="pixel186" Title="pixel186" Unit="units" Internal="pixel186" Type="F" Min="0.00000000e+00" Max="2.55000000e+02"/>
    <Variable VarIndex="51" Expression="pixel187" Label="pixel187" Title="pixel187" Unit="units" Internal="pixel187" Type="F" Min="0.00000000e+00" Max="2.55000000e+02"/>
    <Variable VarIndex="52" Expression="pixel188" Label="pixel188" Title="pixel188" Unit="units" Internal="pixel188" Type="F" Min="0.00000000e+00" Max="2.55000000e+02"/>
    <Variable VarIndex="53" Expression="pixel189" Label="pixel189" Title="pixel189" Unit="units" Internal="pixel189" Type="F" Min="0.00000000e+00" Max="2.55000000e+02"/>
    <Variable VarIndex="54" Expression="pixel190" Label="pixel190" Title="pixel190" Unit="units" Internal="pixel190" Type="F" Min="0.00000000e+00" Max="2.55000000e+02"/>
    <Variable VarIndex="55" Expression="pixel200" Label="pixel200" Title="pixel200" Unit="units" Internal="pixel200" Type="F" Min="0.00000000e+00" Max="2.55000000e+02"/>
    <Variable VarIndex="56" Expression="pixel201" Label="pixel201" Title="pixel201" Unit="units" Internal="pixel201" Type="F" Min="0.00000000e+00" Max="2.55000000e+02"/>
    <Variable VarIndex="57" Expression="pixel202" Label="pixel202" Title="pixel202" Unit="units" Internal="pixel202" Type="F" Min="0.00000000e+00" Max="2.55000000e+02"/>
    <Variable VarIndex="58" Expression="pixel203" Label="pixel203" Title="pixel203" Unit="units" Internal="pixel203" Type="F" Min="0.00000000e+00" Max="2.55000000e+02"/>
    <Variable VarIndex="59" Expression="pixel204" Label="pixel204" Title="pixel204" Unit="units" Internal="pixel204" Type="F" Min="0.00000000e+00" Max="2.55000000e+02"/>
    <Variable VarIndex="60" Expression="pixel205" Label="pixel205" Title="pixel205" Unit="units" Internal="pixel205" Type="F" Min="0.00000000e+00" Max="2.55000000e+02"/>
    <Variable VarIndex="61" Expression="pixel206" Label="pixel206" Title="pixel206" Unit="units" Internal="pixel206" Type="F" Min="0.00000000e+00" Max="2.55000000e+02"/>
    <Variable VarIndex="62" Expression="pixel207" Label="pixel207" Title="pixel207" Unit="units" Internal="pixel207" Type="F" Min="0.00000000e+00" Max="2.55000000e+02"/>
    <Variable VarIndex="63" Expression="pixel208" Label="pixel208" Title="pixel208" Unit="units" Internal="pixel208" Type="F" Min="0.00000000e+00" Max="2.55000000e+02"/>
    <Variable VarIndex="64" Expression="pixel209" Label="pixel209" Title="pixel209" Unit="units" Internal="pixel209" Type="F" Min="0.00000000e+00" Max="2.55000000e+02"/>
    <Variable VarIndex="65" Expression="pixel210" Label="pixel210" Title="pixel210" Unit="units" Internal="pixel210" Type="F" Min="0.00000000e+00" Max="2.55000000e+02"/>
    <Variable VarIndex="66" Expression="pixel211" Label="pixel211" Title="pixel211" Unit="units" Internal="pixel211" Type="F" Min="0.00000000e+00" Max="2.55000000e+02"/>
    <Variable VarIndex="67" Expression="pixel212" Label="pixel212" Title="pixel212" Unit="units" Internal="pixel212" Type="F" Min="0.00000000e+00" Max="2.55000000e+02"/>
    <Variable VarIndex="68" Expression="pixel213" Label="pixel213" Title="pixel213" Unit="units" Internal="pixel213" Type="F" Min="0.00000000e+00" Max="2.55000000e+02"/>
    <Variable VarIndex="69" Expression="pixel214" Label="pixel214" Title="pixel214" Unit="units" Internal="pixel214" Type="F" Min="0.00000000e+00" Max="2.55000000e+02"/>
    <Variable VarIndex="70" Expression="pixel215" Label="pixel215" Title="pixel215" Unit="units" Internal="pixel215" Type="F" Min="0.00000000e+00" Max="2.55000000e+02"/>
    <Variable VarIndex="71" Expression="pixel216" Label="pixel216" Title="pixel216" Unit="units" Internal="pixel216" Type="F" Min="0.00000000e+00" Max="2.55000000e+02"/>
    <Variable VarIndex="72" Expression="pixel217" Label="pixel217" Title="pixel217" Unit="units" Internal="pixel217" Type="F" Min="0.00000000e+00" Max="2.55000000e+02"/>
    <Variable VarIndex="73" Expression="pixel218" Label="pixel218" Title="pixel218" Unit="units" Internal="pixel218" Type="F" Min="0.00000000e+00" Max="2.55000000e+02"/>
    <Variable VarIndex="74" Expression="pixel219" Label="pixel219" Title="pixel219" Unit="units" Internal="pixel219" Type="F" Min="0.00000000e+00" Max="2.55000000e+02"/>
    <Variable VarIndex="75" Expression="pixel228" Label="pixel228" Title="pixel228" Unit="units" Internal="pixel228" Type="F" Min="0.00000000e+00" Max="2.55000000e+02"/>
    <Variable VarIndex="76" Expression="pixel229" Label="pixel229" Title="pixel229" Unit="units" Internal="pixel229" Type="F" Min="0.00000000e+00" Max="2.55000000e+02"/>
    <Variable VarIndex="77" Expression="pixel230" Label="pixel230" Title="pixel230" Unit="units" Internal="pixel230" Type="F" Min="0.00000000e+00" Max="2.55000000e+02"/>
    <Variable VarIndex="78" Expression="pixel231" Label="pixel231" Title="pixel231" Unit="units" Internal="pixel231" Type="F" Min="0.00000000e+00" Max="2.55000000e+02"/>
    <Variable VarIndex="79" Expression="pixel232" Label="pixel232" Title="pixel232" Unit="units" Internal="pixel232" Type="F" Min="0.00000000e+00" Max="2.55000000e+02"/>
    <Variable VarIndex="80" Expression="pixel233" Label="pixel233" Title="pixel233" Unit="units" Internal="pixel233" Type="F" Min="0.00000000e+00" Max="2.55000000e+02"/>
    <Variable VarIndex="81" Expression="pixel234" Label="pixel234" Title="pixel234" Unit="units" Internal="pixel234" Type="F" Min="0.00000000e+00" Max="2.55000000e+02"/>
    <Variable VarIndex="82" Expression="pixel235" Label="pixel235" Title="pixel235" Unit="units" Internal="pixel235" Type="F" Min="0.00000000e+00" Max="2.55000000e+02"/>
    <Variable VarIndex="83" Expression="pixel236" Label="pixel236" Title="pixel236" Unit="units" Internal="pixel236" Type="F" Min="0.00000000e+00" Max="2.55000000e+02"/>
    <Variable VarIndex="84" Expression="pixel237" Label="pixel237" Title="pixel237" Unit="units" Internal="pixel237" Type="F" Min="0.00000000e+00" Max="2.55000000e+02"/>
    <Variable VarIndex="85" Expression="pixel238" Label="pixel238" Title="pixel238" Unit="units" Internal="pixel238" Type="F" Min="0.00000000e+00" Max="2.55000000e+02"/>
    <Variable VarIndex="86" Expression="pixel239" Label="pixel239" Title="pixel239" Unit="units" Internal="pixel239" Type="F" Min="0.00000000e+00" Max="2.55000000e+02"/>
    <Variable VarIndex="87" Expression="pixel240" Label="pixel240" Title="pixel240" Unit="units" Internal="pixel240" Type="F" Min="0.00000000e+00" Max="2.55000000e+02"/>
    <Variable VarIndex="88" Expression="pixel241" Label="pixel241" Title="pixel241" Unit="units" Internal="pixel241" Type="F" Min="0.00000000e+00" Max="2.55000000e+02"/>
    <Variable VarIndex="89" Expression="pixel242" Label="pixel242" Title="pixel242" Unit="units" Internal="pixel242" Type="F" Min="0.00000000e+00" Max="2.55000000e+02"/>
    <Variable VarIndex="90" Expression="pixel243" Label="pixel243" Title="pixel243" Unit="units" Internal="pixel243" Type="F" Min="0.00000000e+00" Max="2.55000000e+02"/>
    <Variable VarIndex="91" Expression="pixel244" Label="pixel244" Title="pixel244" Unit="units" Internal="pixel244" Type="F" Min="0.00000000e+00" Max="2.55000000e+02"/>
    <Variable VarIndex="92" Expression="pixel245" Label="pixel245" Title="pixel245" Unit="units" Internal="pixel245" Type="F" Min="0.00000000e+00" Max="2.55000000e+02"/>
    <Variable VarIndex="93" Expression="pixel246" Label="pixel246" Title="pixel246" Unit="units" Internal="pixel246" Type="F" Min="0.00000000e+00" Max="2.55000000e+02"/>
    <Variable VarIndex="94" Expression="pixel247" Label="pixel247" Title="pixel247" Unit="units" Internal="pixel247" Type="F" Min="0.00000000e+00" Max="2.55000000e+02"/>
    <Variable VarIndex="95" Expression="pixel256" Label="pixel256" Title="pixel256" Unit="units" Internal="pixel256" Type="F" Min="0.00000000e+00" Max="2.55000000e+02"/>
    <Variable VarIndex="96" Expression="pixel257" Label="pixel257" Title="pixel257" Unit="units" Internal="pixel257" Type="F" Min="0.00000000e+00" Max="2.55000000e+02"/>
    <Variable VarIndex="97" Expression="pixel258" Label="pixel258" Title="pixel258" Unit="units" Internal="pixel258" Type="F" Min="0.00000000e+00" Max="2.55000000e+02"/>
    <Variable VarIndex="98" Expression="pixel259" Label="pixel259" Title="pixel259" Unit="units" Internal="pixel259" Type="F" Min="0.00000000e+00" Max="2.55000000e+02"/>
    <Variable VarIndex="99" Expression="pixel260" Label="pixel260" Title="pixel260" Unit="units" Internal="pixel260" Type="F" Min="0.00000000e+00" Max="2.55000000e+02"/>
    <Variable VarIndex="100" Expression="pixel261" Label="pixel261" Title="pixel261" Unit="units" Internal="pixel261" Type="F" Min="0.00000000e+00" Max="2.55000000e+02"/>
    <Variable VarIndex="101" Expression="pixel262" Label="pixel262" Title="pixel262" Unit="units" Internal="pixel262" Type="F" Min="0.00000000e+00" Max="2.55000000e+02"/>
    <Variable VarIndex="102" Expression="pixel263" Label="pixel263" Title="pixel263" Unit="units" Internal="pixel263" Type="F" Min="0.00000000e+00" Max="2.55000000e+02"/>
    <Variable VarIndex="103" Expression="pixel264" Label="pixel264" Title="pixel264" Unit="units" Internal="pixel264" Type="F" Min="0.00000000e+00" Max="2.55000000e+02"/>
    <Variable VarIndex="104" Expression="pixel265" Label="pixel265" Title="pixel265" Unit="units" Internal="pixel265" Type="F" Min="0.00000000e+00" Max="2.55000000e+02"/>
    <Variable VarIndex="105" Expression="pixel266" Label="pixel266" Title="pixel266" Unit="units" Internal="pixel266" Type="F" Min="0.00000000e+00" Max="2.55000000e+02"/>
    <Variable VarIndex="106" Expression="pixel267" Label="pixel267" Title="pixel267" Unit="units" Internal="pixel267" Type="F" Min="0.00000000e+00" Max="2.55000000e+02"/>
    <Variable VarIndex="107" Expression="pixel268" Label="pixel268" Title="pixel268" Unit="units" Internal="pixel268" Type="F" Min="0.00000000e+00" Max="2.55000000e+02"/>
    <Variable VarIndex="108" Expression="pixel269" Label="pixel269" Title="pixel269" Unit="units" Internal="pixel269" Type="F" Min="0.00000000e+00" Max="2.55000000e+02"/>
    <Variable VarIndex="109" Expression="pixel270" Label="pixel270" Title="pixel270" Unit="units" Internal="pixel270" Type="F" Min="0.00000000e+00" Max="2.55000000e+02"/>
    <Variable VarIndex="110" Expression="pixel271" Label="pixel271" Title="pixel271" Unit="units" Internal="pixel271" Type="F" Min="0.00000000e+00" Max="2.55000000e+02"/>
    <Variable VarIndex="111" Expression="pixel272" Label="pixel272" Title="pixel272" Unit="units" Internal="pixel272" Type="F" Min="0.00000000e+00" Max="2.55000000e+02"/>
    <Variable VarIndex="112" Expression="pixel273" Label="pixel273" Title="pixel273" Unit="units" Internal="pixel273" Type="F" Min="0.00000000e+00" Max="2.55000000e+02"/>
    <Variable VarIndex="113" Expression="pixel274" Label="pixel274" Title="pixel274" Unit="units" Internal="pixel274" Type="F" Min="0.00000000e+00" Max="2.55000000e+02"/>
    <Variable VarIndex="114" Expression="pixel275" Label="pixel275" Title="pixel275" Unit="units" Internal="pixel275" Type="F" Min="0.00000000e+00" Max="2.55000000e+02"/>
    <Variable VarIndex="115" Expression="pixel284" Label="pixel284" Title="pixel284" Unit="units" Internal="pixel284" Type="F" Min="0.00000000e+00" Max="2.55000000e+02"/>
    <Variable VarIndex="116" Expression="pixel285" Label="pixel285" Title="pixel285" Unit="units" Internal="pixel285" Type="F" Min="0.00000000e+00" Max="2.55000000e+02"/>
    <Variable VarIndex="117" Expression="pixel286" Label="pixel286" Title="pixel286" Unit="units" Internal="pixel286" Type="F" Min="0.00000000e+00" Max="2.55000000e+02"/>
    <Variable VarIndex="118" Expression="pixel287" Label="pixel287" Title="pixel287" Unit="units" Internal="pixel287" Type="F" Min="0.00000000e+00" Max="2.55000000e+02"/>
    <Variable VarIndex="119" Expression="pixel288" Label="pixel288" Title="pixel288" Unit="units" Internal="pixel288" Type="F" Min="0.00000000e+00" Max="2.55000000e+02"/>
    <Variable VarIndex="120" Expression="pixel289" Label="pixel289" Title="pixel289" Unit="units" Internal="pixel289" Type="F" Min="0.00000000e+00" Max="2.55000000e+02"/>
    <Variable VarIndex="121" Expression="pixel290" Label="pixel290" Title="pixel290" Unit="units" Internal="pixel290" Type="F" Min="0.00000000e+00" Max="2.55000000e+02"/>
    <Variable VarIndex="122" Expression="pixel291" Label="pixel291" Title="pixel291" Unit="units" Internal="pixel291" Type="F" Min="0.00000000e+00" Max="2.55000000e+02"/>
    <Variable VarIndex="123" Expression="pixel292" Label="pixel292" Title="pixel292" Unit="units" Internal="pixel292" Type="F" Min="0.00000000e+00" Max="2.55000000e+02"/>
    <Variable VarIndex="124" Expression="pixel293" Label="pixel293" Title="pixel293" Unit="units" Internal="pixel293" Type="F" Min="0.00000000e+00" Max="2.55000000e+02"/>
    <Variable VarIndex="125" Expression="pixel294" Label="pixel294" Title="pixel294" Unit="units" Internal="pixel294" Type="F" Min="0.00000000e+00" Max="2.55000000e+02"/>
    <Variable VarIndex="126" Expression="pixel295" Label="pixel295" Title="pixel295" Unit="units" Internal="pixel295" Type="F" Min="0.00000000e+00" Max="2.55000000e+02"/>
    <Variable VarIndex="127" Expression="pixel296" Label="pixel296" Title="pixel296" Unit="units" Internal="pixel296" Type="F" Min="0.00000000e+00" Max="2.55000000e+02"/>
    <Variable VarIndex="128" Expression="pixel297" Label="pixel297" Title="pixel297" Unit="units" Internal="pixel297" Type="F" Min="0.00000000e+00" Max="2.55000000e+02"/>
    <Variable VarIndex="129" Expression="pixel298" Label="pixel298" Title="pixel298" Unit="units" Internal="pixel298" Type="F" Min="0.00000000e+00" Max="2.55000000e+02"/>
    <Variable VarIndex="130" Expression="pixel299" Label="pixel299" Title="pixel299" Unit="units" Internal="pixel299" Type="F" Min="0.00000000e+00" Max="2.55000000e+02"/>
    <Variable VarIndex="131" Expression="pixel300" Label="pixel300" Title="pixel300" Unit="units" Internal="pixel300" Type="F" Min="0.00000000e+00" Max="2.55000000e+02"/>
    <Variable VarIndex="132" Expression="pixel301" Label="pixel301" Title="pixel301" Unit="units" Internal="pixel301" Type="F" Min="0.00000000e+00" Max="2.55000000e+02"/>
    <Variable VarIndex="133" Expression="pixel302" Label="pixel302" Title="pixel302" Unit="units" Internal="pixel302" Type="F" Min="0.00000000e+00" Max="2.55000000e+02"/>
    <Variable VarIndex="134" Expression="pixel303" Label="pixel303" Title="pixel303" Unit="units" Internal="pixel303" Type="F" Min="0.00000000e+00" Max="2.55000000e+02"/>
    <Variable VarIndex="135" Expression="pixel312" Label="pixel312" Title="pixel312" Unit="units" Internal="pixel312" Type="F" Min="0.00000000e+00" Max="2.55000000e+02"/>
    <Variable VarIndex="136" Expression="pixel313" Label="pixel313" Title="pixel313" Unit="units" Internal="pixel313" Type="F" Min="0.00000000e+00" Max="2.55000000e+02"/>
    <Variable VarIndex="137" Expression="pixel314" Label="pixel314" Title="pixel314" Unit="units" Internal="pixel314" Type="F" Min="0.00000000e+00" Max="2.55000000e+02"/>
    <Variable VarIndex="138" Expression="pixel315" Label="pixel315" Title="pixel315" Unit="units" Internal="pixel315" Type="F" Min="0.00000000e+00" Max="2.55000000e+02"/>
    <Variable VarIndex="139" Expression="pixel316" Label="pixel316" Title="pixel316" Unit="units" Internal="pixel316" Type="F" Min="0.00000000e+00" Max="2.55000000e+02"/>
    <Variable VarIndex="140" Expression="pixel317" Label="pixel317" Title="pixel317" Unit="units" Internal="pixel317" Type="F" Min="0.00000000e+00" Max="2.55000000e+02"/>
    <Variable VarIndex="141" Expression="pixel318" Label="pixel318" Title="pixel318" Unit="units" Internal="pixel318" Type="F" Min="0.00000000e+00" Max="2.55000000e+02"/>
    <Variable VarIndex="142" Expression="pixel319" Label="pixel319" Title="pixel319" Unit="units" Internal="pixel319" Type="F" Min="0.00000000e+00" Max="2.55000000e+02"/>
    <Variable VarIndex="143" Expression="pixel320" Label="pixel320" Title="pixel320" Unit="units" Internal="pixel320" Type="F" Min="0.00000000e+00" Max="2.55000000e+02"/>
    <Variable VarIndex="144" Expression="pixel321" Label="pixel321" Title="pixel321" Unit="units" Internal="pixel321" Type="F" Min="0.00000000e+00" Max="2.55000000e+02"/>
    <Variable VarIndex="145" Expression="pixel322" Label="pixel322" Title="pixel322" Unit="units" Internal="pixel322" Type="F" Min="0.00000000e+00" Max="2.55000000e+02"/>
    <Variable VarIndex="146" Expression="pixel323" Label="pixel323" Title="pixel323" Unit="units" Internal="pixel323" Type="F" Min="0.00000000e+00" Max="2.55000000e+02"/>
    <Variable VarIndex="147" Expression="pixel324" Label="pixel324" Title="pixel324" Unit="units" Internal="pixel324" Type="F" Min="0.00000000e+00" Max="2.55000000e+02"/>
    <Variable VarIndex="148" Expression="pixel325" Label="pixel325" Title="pixel325" Unit="units" Internal="pixel325" Type="F" Min="0.00000000e+00" Max="2.55000000e+02"/>
    <Variable VarIndex="149" Expression="pixel326" Label="pixel326" Title="pixel326" Unit="units" Internal="pixel326" Type="F" Min="0.00000000e+00" Max="2.55000000e+02"/>
    <Variable VarIndex="150" Expression="pixel327" Label="pixel327" Title="pixel327" Unit="units" Internal="pixel327" Type="F" Min="0.00000000e+00" Max="2.55000000e+02"/>
    <Variable VarIndex="151" Expression="pixel328" Label="pixel328" Title="pixel328" Unit="units" Internal="pixel328" Type="F" Min="0.00000000e+00" Max="2.55000000e+02"/>
    <Variable VarIndex="152" Expression="pixel329" Label="pixel329" Title="pixel329" Unit="units" Internal="pixel329" Type="F" Min="0.00000000e+00" Max="2.55000000e+02"/>
    <Variable VarIndex="153" Expression="pixel330" Label="pixel330" Title="pixel330" Unit="units" Internal="pixel330" Type="F" Min="0.00000000e+00" Max="2.55000000e+02"/>
    <Variable VarIndex="154" Expression="pixel331" Label="pixel331" Title="pixel331" Unit="units" Internal="pixel331" Type="F" Min="0.00000000e+00" Max="2.55000000e+02"/>
    <Variable VarIndex="155" Expression="pixel332" Label="pixel332" Title="pixel332" Unit="units" Internal="pixel332" Type="F" Min="0.00000000e+00" Max="2.55000000e+02"/>
    <Variable VarIndex="156" Expression="pixel333" Label="pixel333" Title="pixel333" Unit="units" Internal="pixel333" Type="F" Min="0.00000000e+00" Max="2.55000000e+02"/>
    <Variable VarIndex="157" Expression="pixel340" Label="pixel340" Title="pixel340" Unit="units" Internal="pixel340" Type="F" Min="0.00000000e+00" Max="2.55000000e+02"/>
    <Variable VarIndex="158" Expression="pixel341" Label="pixel341" Title="pixel341" Unit="units" Internal="pixel341" Type="F" Min="0.00000000e+00" Max="2.55000000e+02"/>
    <Variable VarIndex="159" Expression="pixel342" Label="pixel342" Title="pixel342" Unit="units" Internal="pixel342" Type="F" Min="0.00000000e+00" Max="2.55000000e+02"/>
    <Variable VarIndex="160" Expression="pixel343" Label="pixel343" Title="pixel343" Unit="units" Internal="pixel343" Type="F" Min="0.00000000e+00" Max="2.55000000e+02"/>
    <Variable VarIndex="161" Expression="pixel344" Label="pixel344" Title="pixel344" Unit="units" Internal="pixel344" Type="F" Min="0.00000000e+00" Max="2.55000000e+02"/>
    <Variable VarIndex="162" Expression="pixel345" Label="pixel345" Title="pixel345" Unit="units" Internal="pixel345" Type="F" Min="0.00000000e+00" Max="2.55000000e+02"/>
    <Variable VarIndex="163" Expression="pixel346" Label="pixel346" Title="pixel346" Unit="units" Internal="pixel346" Type="F" Min="0.00000000e+00" Max="2.55000000e+02"/>
    <Variable VarIndex="164" Expression="pixel347" Label="pixel347" Title="pixel347" Unit="units" Internal="pixel347" Type="F" Min="0.00000000e+00" Max="2.55000000e+02"/>
    <Variable VarIndex="165" Expression="pixel348" Label="pixel348" Title="pixel348" Unit="units" Internal="pixel348" Type="F" Min="0.00000000e+00" Max="2.55000000e+02"/>
    <Variable VarIndex="166" Expression="pixel349" Label="pixel349" Title="pixel349" Unit="units" Internal="pixel349" Type="F" Min="0.00000000e+00" Max="2.55000000e+02"/>
    <Variable VarIndex="167" Expression="pixel350" Label="pixel350" Title="pixel350" Unit="units" Internal="pixel350" Type="F" Min="0.00000000e+00" Max="2.55000000e+02"/>
    <Variable VarIndex="168" Expression="pixel351" Label="pixel351" Title="pixel351" Unit="units" Internal="pixel351" Type="F" Min="0.00000000e+00" Max="2.55000000e+02"/>
    <Variable VarIndex="169" Expression="pixel352" Label="pixel352" Title="pixel352" Unit="units" Internal="pixel352" Type="F" Min="0.00000000e+00" Max="2.55000000e+02"/>
    <Variable VarIndex="170" Expression="pixel353" Label="pixel353" Title="pixel353" Unit="units" Internal="pixel353" Type="F" Min="0.00000000e+00" Max="2.55000000e+02"/>
    <Variable VarIndex="171" Expression="pixel354" Label="pixel354" Title="pixel354" Unit="units" Internal="pixel354" Type="F" Min="0.00000000e+00" Max="2.55000000e+02"/>
    <Variable VarIndex="172" Expression="pixel355" Label="pixel355" Title="pixel355" Unit="units" Internal="pixel355" Type="F" Min="0.00000000e+00" Max="2.55000000e+02"/>
    <Variable VarIndex="173" Expression="pixel356" Label="pixel356" Title="pixel356" Unit="units" Internal="pixel356" Type="F" Min="0.00000000e+00" Max="2.55000000e+02"/>
    <Variable VarIndex="174" Expression="pixel357" Label="pixel357" Title="pixel357" Unit="units" Internal="pixel357" Type="F" Min="0.00000000e+00" Max="2.55000000e+02"/>
    <Variable VarIndex="175" Expression="pixel358" Label="pixel358" Title="pixel358" Unit="units" Internal="pixel358" Type="F" Min="0.00000000e+00" Max="2.55000000e+02"/>
    <Variable VarIndex="176" Expression="pixel359" Label="pixel359" Title="pixel359" Unit="units" Internal="pixel359" Type="F" Min="0.00000000e+00" Max="2.55000000e+02"/>
    <Variable VarIndex="177" Expression="pixel360" Label="pixel360" Title="pixel360" Unit="units" Internal="pixel360" Type="F" Min="0.00000000e+00" Max="2.55000000e+02"/>
    <Variable VarIndex="178" Expression="pixel361" Label="pixel361" Title="pixel361" Unit="units" Internal="pixel361" Type="F" Min="0.00000000e+00" Max="2.55000000e+02"/>
    <Variable VarIndex="179" Expression="pixel368" Label="pixel368" Title="pixel368" Unit="units" Internal="pixel368" Type="F" Min="0.00000000e+00" Max="2.55000000e+02"/>
    <Variable VarIndex="180" Expression="pixel369" Label="pixel369" Title="pixel369" Unit="units" Internal="pixel369" Type="F" Min="0.00000000e+00" Max="2.55000000e+02"/>
    <Variable VarIndex="181" Expression="pixel370" Label="pixel370" Title="pixel370" Unit="units" Internal="pixel370" Type="F" Min="0.00000000e+00" Max="2.55000000e+02"/>
    <Variable VarIndex="182" Expression="pixel371" Label="pixel371" Title="pixel371" Unit="units" Internal="pixel371" Type="F" Min="0.00000000e+00" Max="2.55000000e+02"/>
    <Variable VarIndex="183" Expression="pixel372" Label="pixel372" Title="pixel372" Unit="units" Internal="pixel372" Type="F" Min="0.00000000e+00" Max="2.55000000e+02"/>
    <Variable VarIndex="184" Expression="pixel373" Label="pixel373" Title="pixel373" Unit="units" Internal="pixel373" Type="F" Min="0.00000000e+00" Max="2.55000000e+02"/>
    <Variable VarIndex="185" Expression="pixel374" Label="pixel374" Title="pixel374" Unit="units" Internal="pixel374" Type="F" Min="0.00000000e+00" Max="2.55000000e+02"/>
    <Variable VarIndex="186" Expression="pixel375" Label="pixel375" Title="pixel375" Unit="units" Internal="pixel375" Type="F" Min="0.00000000e+00" Max="2.55000000e+02"/>
    <Variable VarIndex="187" Expression="pixel376" Label="pixel376" Title="pixel376" Unit="units" Internal="pixel376" Type="F" Min="0.00000000e+00" Max="2.55000000e+02"/>
    <Variable VarIndex="188" Expression="pixel377" Label="pixel377" Title="pixel377" Unit="units" Internal="pixel377" Type="F" Min="0.00000000e+00" Max="2.55000000e+02"/>
    <Variable VarIndex="189" Expression="pixel378" Label="pixel378" Title="pixel378" Unit="units" Internal="pixel378" Type="F" Min="0.00000000e+00" Max="2.55000000e+02"/>
    <Variable VarIndex="190" Expression="pixel379" Label="pixel379" Title="pixel379" Unit="units" Internal="pixel379" Type="F" Min="0.00000000e+00" Max="2.55000000e+02"/>
    <Variable VarIndex="191" Expression="pixel380" Label="pixel380" Title="pixel380" Unit="units" Internal="pixel380" Type="F" Min="0.00000000e+00" Max="2.55000000e+02"/>
    <Variable VarIndex="192" Expression="pixel381" Label="pixel381" Title="pixel381" Unit="units" Internal="pixel381" Type="F" Min="0.00000000e+00" Max="2.55000000e+02"/>
    <Variable VarIndex="193" Expression="pixel382" Label="pixel382" Title="pixel382" Unit="units" Internal="pixel382" Type="F" Min="0.00000000e+00" Max="2.55000000e+02"/>
    <Variable VarIndex="194" Expression="pixel383" Label="pixel383" Title="pixel383" Unit="units" Internal="pixel383" Type="F" Min="0.00000000e+00" Max="2.55000000e+02"/>
    <Variable VarIndex="195" Expression="pixel384" Label="pixel384" Title="pixel384" Unit="units" Internal="pixel384" Type="F" Min="0.00000000e+00" Max="2.55000000e+02"/>
    <Variable VarIndex="196" Expression="pixel385" Label="pixel385" Title="pixel385" Unit="units" Internal="pixel385" Type="F" Min="0.00000000e+00" Max="2.55000000e+02"/>
    <Variable VarIndex="197" Expression="pixel386" Label="pixel386" Title="pixel386" Unit="units" Internal="pixel386" Type="F" Min="0.00000000e+00" Max="2.55000000e+02"/>
    <Variable VarIndex="198" Expression="pixel387" Label="pixel387" Title="pixel387" Unit="units" Internal="pixel387" Type="F" Min="0.00000000e+00" Max="2.55000000e+02"/>
    <Variable VarIndex="199" Expression="pixel388" Label="pixel388" Title="pixel388" Unit="units" Internal="pixel388" Type="F" Min="0.00000000e+00" Max="2.55000000e+02"/>
    <Variable VarIndex="200" Expression="pixel389" Label="pixel389" Title="pixel389" Unit="units" Internal="pixel389" Type="F" Min="0.00000000e+00" Max="2.55000000e+02"/>
    <Variable VarIndex="201" Expression="pixel396" Label="pixel396" Title="pixel396" Unit="units" Internal="pixel396" Type="F" Min="0.00000000e+00" Max="2.55000000e+02"/>
    <Variable VarIndex="202" Expression="pixel397" Label="pixel397" Title="pixel397" Unit="units" Internal="pixel397" Type="F" Min="0.00000000e+00" Max="2.55000000e+02"/>
    <Variable VarIndex="203" Expression="pixel398" Label="pixel398" Title="pixel398" Unit="units" Internal="pixel398" Type="F" Min="0.00000000e+00" Max="2.55000000e+02"/>
    <Variable VarIndex="204" Expression="pixel399" Label="pixel399" Title="pixel399" Unit="units" Internal="pixel399" Type="F" Min="0.00000000e+00" Max="2.55000000e+02"/>
    <Variable VarIndex="205" Expression="pixel400" Label="pixel400" Title="pixel400" Unit="units" Internal="pixel400" Type="F" Min="0.00000000e+00" Max="2.55000000e+02"/>
    <Variable VarIndex="206" Expression="pixel401" Label="pixel401" Title="pixel401" Unit="units" Internal="pixel401" Type="F" Min="0.00000000e+00" Max="2.55000000e+02"/>
    <Variable VarIndex="207" Expression="pixel402" Label="pixel402" Title="pixel402" Unit="units" Internal="pixel402" Type="F" Min="0.00000000e+00" Max="2.55000000e+02"/>
    <Variable VarIndex="208" Expression="pixel403" Label="pixel403" Title="pixel403" Unit="units" Internal="pixel403" Type="F" Min="0.00000000e+00" Max="2.55000000e+02"/>
    <Variable VarIndex="209" Expression="pixel404" Label="pixel404" Title="pixel404" Unit="units" Internal="pixel404" Type="F" Min="0.00000000e+00" Max="2.55000000e+02"/>
    <Variable VarIndex="210" Expression="pixel405" Label="pixel405" Title="pixel405" Unit="units" Internal="pixel405" Type="F" Min="0.00000000e+00" Max="2.55000000e+02"/>
    <Variable VarIndex="211" Expression="pixel406" Label="pixel406" Title="pixel406" Unit="units" Internal="pixel406" Type="F" Min="0.00000000e+00" Max="2.55000000e+02"/>
    <Variable VarIndex="212" Expression="pixel407" Label="pixel407" Title="pixel407" Unit="units" Internal="pixel407" Type="F" Min="0.00000000e+00" Max="2.55000000e+02"/>
    <Variable VarIndex="213" Expression="pixel408" Label="pixel408" Title="pixel408" Unit="units" Internal="pixel408" Type="F" Min="0.00000000e+00" Max="2.55000000e+02"/>
    <Variable VarIndex="214" Expression="pixel409" Label="pixel409" Title="pixel409" Unit="units" Internal="pixel409" Type="F" Min="0.00000000e+00" Max="2.55000000e+02"/>
    <Variable VarIndex="215" Expression="pixel410" Label="pixel410" Title="pixel410" Unit="units" Internal="pixel410" Type="F" Min="0.00000000e+00" Max="2.55000000e+02"/>
    <Variable VarIndex="216" Expression="pixel411" Label="pixel411" Title="pixel411" Unit="units" Internal="pixel411" Type="F" Min="0.00000000e+00" Max="2.55000000e+02"/>
    <Variable VarIndex="217" Expression="pixel412" Label="pixel412" Title="pixel412" Unit="units" Internal="pixel412" Type="F" Min="0.00000000e+00" Max="2.55000000e+02"/>
    <Variable VarIndex="218" Expression="pixel413" Label="pixel413" Title="pixel413" Unit="units" Internal="pixel413" Type="F" Min="0.00000000e+00" Max="2.55000000e+02"/>
    <Variable VarIndex="219" Expression="pixel414" Label="pixel414" Title="pixel414" Unit="units" Internal="pixel414" Type="F" Min="0.00000000e+00" Max="2.55000000e+02"/>
    <Variable VarIndex="220" Expression="pixel415" Label="pixel415" Title="pixel415" Unit="units" Internal="pixel415" Type="F" Min="0.00000000e+00" Max="2.55000000e+02"/>
    <Variable VarIndex="221" Expression="pixel416" Label="pixel416" Title="pixel416" Unit="units" Internal="pixel416" Type="F" Min="0.00000000e+00" Max="2.55000000e+02"/>
    <Variable VarIndex="222" Expression="pixel424" Label="pixel424" Title="pixel424" Unit="units" Internal="pixel424" Type="F" Min="0.00000000e+00" Max="2.55000000e+02"/>
    <Variable VarIndex="223" Expression="pixel425" Label="pixel425" Title="pixel425" Unit="units" Internal="pixel425" Type="F" Min="0.00000000e+00" Max="2.55000000e+02"/>
    <Variable VarIndex="224" Expression="pixel426" Label="pixel426" Title="pixel426" Unit="units" Internal="pixel426" Type="F" Min="0.00000000e+00" Max="2.55000000e+02"/>
    <Variable VarIndex="225" Expression="pixel427" Label="pixel427" Title="pixel427" Unit="units" Internal="pixel427" Type="F" Min="0.00000000e+00" Max="2.55000000e+02"/>
    <Variable VarIndex="226" Expression="pixel428" Label="pixel428" Title="pixel428" Unit="units" Internal="pixel428" Type="F" Min="0.00000000e+00" Max="2.55000000e+02"/>
    <Variable VarIndex="227" Expression="pixel429" Label="pixel429" Title="pixel429" Unit="units" Internal="pixel429" Type="F" Min="0.00000000e+00" Max="2.55000000e+02"/>
    <Variable VarIndex="228" Expression="pixel430" Label="pixel430" Title="pixel430" Unit="units" Internal="pixel430" Type="F" Min="0.00000000e+00" Max="2.55000000e+02"/>
    <Variable VarIndex="229" Expression="pixel431" Label="pixel431" Title="pixel431" Unit="units" Internal="pixel431" Type="F" Min="0.00000000e+00" Max="2.55000000e+02"/>
    <Variable VarIndex="230" Expression="pixel432" Label="pixel432" Title="pixel432" Unit="units" Internal="pixel432" Type="F" Min="0.00000000e+00" Max="2.55000000e+02"/>
    <Variable VarIndex="231" Expression="pixel433" Label="pixel433" Title="pixel433" Unit="units" Internal="pixel433" Type="F" Min="0.00000000e+00" Max="2.55000000e+02"/>
    <Variable VarIndex="232" Expression="pixel434" Label="pixel434" Title="pixel434" Unit="units" Internal="pixel434" Type="F" Min="0.00000000e+00" Max="2.55000000e+02"/>
    <Variable VarIndex="233" Expression="pixel435" Label="pixel435" Title="pixel435" Unit="units" Internal="pixel435" Type="F" Min="0.00000000e+00" Max="2.55000000e+02"/>
    <Variable VarIndex="234" Expression="pixel436" Label="pixel436" Title="pixel436" Unit="units" Internal="pixel436" Type="F" Min="0.00000000e+00" Max="2.55000000e+02"/>
    <Variable VarIndex="235" Expression="pixel437" Label="pixel437" Title="pixel437" Unit="units" Internal="pixel437" Type="F" Min="0.00000000e+00" Max="2.55000000e+02"/>
    <Variable VarIndex="236" Expression="pixel438" Label="pixel438" Title="pixel438" Unit="units" Internal="pixel438" Type="F" Min="0.00000000e+00" Max="2.55000000e+02"/>
    <Variable VarIndex="237" Expression="pixel439" Label="pixel439" Title="pixel439" Unit="units" Internal="pixel439" Type="F" Min="0.00000000e+00" Max="2.55000000e+02"/>
    <Variable VarIndex="238" Expression="pixel440" Label="pixel440" Title="pixel440" Unit="units" Internal="pixel440" Type="F" Min="0.00000000e+00" Max="2.55000000e+02"/>
    <Variable VarIndex="239" Expression="pixel441" Label="pixel441" Title="pixel441" Unit="units" Internal="pixel441" Type="F" Min="0.00000000e+00" Max="2.55000000e+02"/>
    <Variable VarIndex="240" Expression="pixel442" Label="pixel442" Title="pixel442" Unit="units" Internal="pixel442" Type="F" Min="0.00000000e+00" Max="2.55000000e+02"/>
    <Variable VarIndex="241" Expression="pixel443" Label="pixel443" Title="pixel443" Unit="units" Internal="pixel443" Type="F" Min="0.00000000e+00" Max="2.55000000e+02"/>
    <Variable VarIndex="242" Expression="pixel444" Label="pixel444" Title="pixel444" Unit="units" Internal="pixel444" Type="F" Min="0.00000000e+00" Max="2.55000000e+02"/>
    <Variable VarIndex="243" Expression="pixel452" Label="pixel452" Title="pixel452" Unit="units" Internal="pixel452" Type="F" Min="0.00000000e+00" Max="2.55000000e+02"/>
    <Variable VarIndex="244" Expression="pixel453" Label="pixel453" Title="pixel453" Unit="units" Internal="pixel453" Type="F" Min="0.00000000e+00" Max="2.55000000e+02"/>
    <Variable VarIndex="245" Expression="pixel454" Label="pixel454" Title="pixel454" Unit="units" Internal="pixel454" Type="F" Min="0.00000000e+00" Max="2.55000000e+02"/>
    <Variable VarIndex="246" Expression="pixel455" Label="pixel455" Title="pixel455" Unit="units" Internal="pixel455" Type="F" Min="0.00000000e+00" Max="2.55000000e+02"/>
    <Variable VarIndex="247" Expression="pixel456" Label="pixel456" Title="pixel456" Unit="units" Internal="pixel456" Type="F" Min="0.00000000e+00" Max="2.55000000e+02"/>
    <Variable VarIndex="248" Expression="pixel457" Label="pixel457" Title="pixel457" Unit="units" Internal="pixel457" Type="F" Min="0.00000000e+00" Max="2.55000000e+02"/>
    <Variable VarIndex="249" Expression="pixel458" Label="pixel458" Title="pixel458" Unit="units" Internal="pixel458" Type="F" Min="0.00000000e+00" Max="2.55000000e+02"/>
    <Variable VarIndex="250" Expression="pixel459" Label="pixel459" Title="pixel459" Unit="units" Internal="pixel459" Type="F" Min="0.00000000e+00" Max="2.55000000e+02"/>
    <Variable VarIndex="251" Expression="pixel460" Label="pixel460" Title="pixel460" Unit="units" Internal="pixel460" Type="F" Min="0.00000000e+00" Max="2.55000000e+02"/>
    <Variable VarIndex="252" Expression="pixel461" Label="pixel461" Title="pixel461" Unit="units" Internal="pixel461" Type="F" Min="0.00000000e+00" Max="2.55000000e+02"/>
    <Variable VarIndex="253" Expression="pixel462" Label="pixel462" Title="pixel462" Unit="units" Internal="pixel462" Type="F" Min="0.00000000e+00" Max="2.55000000e+02"/>
    <Variable VarIndex="254" Expression="pixel463" Label="pixel463" Title="pixel463" Unit="units" Internal="pixel463" Type="F" Min="0.00000000e+00" Max="2.55000000e+02"/>
    <Variable VarIndex="255" Expression="pixel464" Label="pixel464" Title="pixel464" Unit="units" Internal="pixel464" Type="F" Min="0.00000000e+00" Max="2.55000000e+02"/>
    <Variable VarIndex="256" Expression="pixel465" Label="pixel465" Title="pixel465" Unit="units" Internal="pixel465" Type="F" Min="0.00000000e+00" Max="2.55000000e+02"/>
    <Variable VarIndex="257" Expression="pixel466" Label="pixel466" Title="pixel466" Unit="units" Internal="pixel466" Type="F" Min="0.00000000e+00" Max="2.55000000e+02"/>
    <Variable VarIndex="258" Expression="pixel467" Label="pixel467" Title="pixel467" Unit="units" Internal="pixel467" Type="F" Min="0.00000000e+00" Max="2.55000000e+02"/>
    <Variable VarIndex="259" Expression="pixel468" Label="pixel468" Title="pixel468" Unit="units" Internal="pixel468" Type="F" Min="0.00000000e+00" Max="2.55000000e+02"/>
    <Variable VarIndex="260" Expression="pixel469" Label="pixel469" Title="pixel469" Unit="units" Internal="pixel469" Type="F" Min="0.00000000e+00" Max="2.55000000e+02"/>
    <Variable VarIndex="261" Expression="pixel470" Label="pixel470" Title="pixel470" Unit="units" Internal="pixel470" Type="F" Min="0.00000000e+00" Max="2.55000000e+02"/>
    <Variable VarIndex="262" Expression="pixel471" Label="pixel471" Title="pixel471" Unit="units" Internal="pixel471" Type="F" Min="0.00000000e+00" Max="2.55000000e+02"/>
    <Variable VarIndex="263" Expression="pixel472" Label="pixel472" Title="pixel472" Unit="units" Internal="pixel472" Type="F" Min="0.00000000e+00" Max="2.55000000e+02"/>
    <Variable VarIndex="264" Expression="pixel480" Label="pixel480" Title="pixel480" Unit="units" Internal="pixel480" Type="F" Min="0.00000000e+00" Max="2.55000000e+02"/>
    <Variable VarIndex="265" Expression="pixel481" Label="pixel481" Title="pixel481" Unit="units" Internal="pixel481" Type="F" Min="0.00000000e+00" Max="2.55000000e+02"/>
    <Variable VarIndex="266" Expression="pixel482" Label="pixel482" Title="pixel482" Unit="units" Internal="pixel482" Type="F" Min="0.00000000e+00" Max="2.55000000e+02"/>
    <Variable VarIndex="267" Expression="pixel483" Label="pixel483" Title="pixel483" Unit="units" Internal="pixel483" Type="F" Min="0.00000000e+00" Max="2.55000000e+02"/>
    <Variable VarIndex="268" Expression="pixel484" Label="pixel484" Title="pixel484" Unit="units" Internal="pixel484" Type="F" Min="0.00000000e+00" Max="2.55000000e+02"/>
    <Variable VarIndex="269" Expression="pixel485" Label="pixel485" Title="pixel485" Unit="units" Internal="pixel485" Type="F" Min="0.00000000e+00" Max="2.55000000e+02"/>
    <Variable VarIndex="270" Expression="pixel486" Label="pixel486" Title="pixel486" Unit="units" Internal="pixel486" Type="F" Min="0.00000000e+00" Max="2.55000000e+02"/>
    <Variable VarIndex="271" Expression="pixel487" Label="pixel487" Title="pixel487" Unit="units" Internal="pixel487" Type="F" Min="0.00000000e+00" Max="2.55000000e+02"/>
    <Variable VarIndex="272" Expression="pixel488" Label="pixel488" Title="pixel488" Unit="units" Internal="pixel488" Type="F" Min="0.00000000e+00" Max="2.55000000e+02"/>
    <Variable VarIndex="273" Expression="pixel489" Label="pixel489" Title="pixel489" Unit="units" Internal="pixel489" Type="F" Min="0.00000000e+00" Max="2.55000000e+02"/>
    <Variable VarIndex="274" Expression="pixel490" Label="pixel490" Title="pixel490" Unit="units" Internal="pixel490" Type="F" Min="0.00000000e+00" Max="2.55000000e+02"/>
    <Variable VarIndex="275" Expression="pixel491" Label="pixel491" Title="pixel491" Unit="units" Internal="pixel491" Type="F" Min="0.00000000e+00" Max="2.55000000e+02"/>
    <Variable VarIndex="276" Expression="pixel492" Label="pixel492" Title="pixel492" Unit="units" Internal="pixel492" Type="F" Min="0.00000000e+00" Max="2.55000000e+02"/>
    <Variable VarIndex="277" Expression="pixel493" Label="pixel493" Title="pixel493" Unit="units" Internal="pixel493" Type="F" Min="0.00000000e+00" Max="2.55000000e+02"/>
    <Variable VarIndex="278" Expression="pixel494" Label="pixel494" Title="pixel494" Unit="units" Internal="pixel494" Type="F" Min="0.00000000e+00" Max="2.55000000e+02"/>
    <Variable VarIndex="279" Expression="pixel495" Label="pixel495" Title="pixel495" Unit="units" Internal="pixel495" Type="F" Min="0.00000000e+00" Max="2.55000000e+02"/>
    <Variable VarIndex="280" Expression="pixel496" Label="pixel496" Title="pixel496" Unit="units" Internal="pixel496" Type="F" Min="0.00000000e+00" Max="2.55000000e+02"/>
    <Variable VarIndex="281" Expression="pixel497" Label="pixel497" Title="pixel497" Unit="units" Internal="pixel497" Type="F" Min="0.00000000e+00" Max="2.55000000e+02"/>
    <Variable VarIndex="282" Expression="pixel498" Label="pixel498" Title="pixel498" Unit="units" Internal="pixel498" Type="F" Min="0.00000000e+00" Max="2.55000000e+02"/>
    <Variable VarIndex="283" Expression="pixel499" Label="pixel499" Title="pixel499" Unit="units" Internal="pixel499" Type="F" Min="0.00000000e+00" Max="2.55000000e+02"/>
    <Variable VarIndex="284" Expression="pixel500" Label="pixel500" Title="pixel500" Unit="units" Internal="pixel500" Type="F" Min="0.00000000e+00" Max="2.55000000e+02"/>
    <Variable VarIndex="285" Expression="pixel508" Label="pixel508" Title="pixel508" Unit="units" Internal="pixel508" Type="F" Min="0.00000000e+00" Max="2.55000000e+02"/>
    <Variable VarIndex="286" Expression="pixel509" Label="pixel509" Title="pixel509" Unit="units" Internal="pixel509" Type="F" Min="0.00000000e+00" Max="2.55000000e+02"/>
    <Variable VarIndex="287" Expression="pixel510" Label="pixel510" Title="pixel510" Unit="units" Internal="pixel510" Type="F" Min="0.00000000e+00" Max="2.55000000e+02"/>
    <Variable VarIndex="288" Expression="pixel511" Label="pixel511" Title="pixel511" Unit="units" Internal="pixel511" Type="F" Min="0.00000000e+00" Max="2.55000000e+02"/>
    <Variable VarIndex="289" Expression="pixel512" Label="pixel512" Title="pixel512" Unit="units" Internal="pixel512" Type="F" Min="0.00000000e+00" Max="2.55000000e+02"/>
    <Variable VarIndex="290" Expression="pixel513" Label="pixel513" Title="pixel513" Unit="units" Internal="pixel513" Type="F" Min="0.00000000e+00" Max="2.55000000e+02"/>
    <Variable VarIndex="291" Expression="pixel514" Label="pixel514" Title="pixel514" Unit="units" Internal="pixel514" Type="F" Min="0.00000000e+00" Max="2.55000000e+02"/>
    <Variable VarIndex="292" Expression="pixel515" Label="pixel515" Title="pixel515" Unit="units" Internal="pixel515" Type="F" Min="0.00000000e+00" Max="2.55000000e+02"/>
    <Variable VarIndex="293" Expression="pixel516" Label="pixel516" Title="pixel516" Unit="units" Internal="pixel516" Type="F" Min="0.00000000e+00" Max="2.55000000e+02"/>
    <Variable VarIndex="294" Expression="pixel517" Label="pixel517" Title="pixel517" Unit="units" Internal="pixel517" Type="F" Min="0.00000000e+00" Max="2.55000000e+02"/>
    <Variable VarIndex="295" Expression="pixel518" Label="pixel518" Title="pixel518" Unit="units" Internal="pixel518" Type="F" Min="0.00000000e+00" Max="2.55000000e+02"/>
    <Variable VarIndex="296" Expression="pixel519" Label="pixel519" Title="pixel519" Unit="units" Internal="pixel519" Type="F" Min="0.00000000e+00" Max="2.55000000e+02"/>
    <Variable VarIndex="297" Expression="pixel520" Label="pixel520" Title="pixel520" Unit="units" Internal="pixel520" Type="F" Min="0.00000000e+00" Max="2.55000000e+02"/>
    <Variable VarIndex="298" Expression="pixel521" Label="pixel521" Title="pixel521" Unit="units" Internal="pixel521" Type="F" Min="0.00000000e+00" Max="2.55000000e+02"/>
    <Variable VarIndex="299" Expression="pixel522" Label="pixel522" Title="pixel522" Unit="units" Internal="pixel522" Type="F" Min="0.00000000e+00" Max="2.55000000e+02"/>
    <Variable VarIndex="300" Expression="pixel523" Label="pixel523" Title="pixel523" Unit="units" Internal="pixel523" Type="F" Min="0.00000000e+00" Max="2.55000000e+02"/>
    <Variable VarIndex="301" Expression="pixel524" Label="pixel524" Title="pixel524" Unit="units" Internal="pixel524" Type="F" Min="0.00000000e+00" Max="2.55000000e+02"/>
    <Variable VarIndex="302" Expression="pixel525" Label="pixel525" Title="pixel525" Unit="units" Internal="pixel525" Type="F" Min="0.00000000e+00" Max="2.55000000e+02"/>
    <Variable VarIndex="303" Expression="pixel526" Label="pixel526" Title="pixel526" Unit="units" Internal="pixel526" Type="F" Min="0.00000000e+00" Max="2.55000000e+02"/>
    <Variable VarIndex="304" Expression="pixel527" Label="pixel527" Title="pixel527" Unit="units" Internal="pixel527" Type="F" Min="0.00000000e+00" Max="2.55000000e+02"/>
    <Variable VarIndex="305" Expression="pixel528" Label="pixel528" Title="pixel528" Unit="units" Internal="pixel528" Type="F" Min="0.00000000e+00" Max="2.55000000e+02"/>
    <Variable VarIndex="306" Expression="pixel537" Label="pixel537" Title="pixel537" Unit="units" Internal="pixel537" Type="F" Min="0.00000000e+00" Max="2.55000000e+02"/>
    <Variable VarIndex="307" Expression="pixel538" Label="pixel538" Title="pixel538" Unit="units" Internal="pixel538" Type="F" Min="0.00000000e+00" Max="2.55000000e+02"/>
    <Variable VarIndex="308" Expression="pixel539" Label="pixel539" Title="pixel539" Unit="units" Internal="pixel539" Type="F" Min="0.00000000e+00" Max="2.55000000e+02"/>
    <Variable VarIndex="309" Expression="pixel540" Label="pixel540" Title="pixel540" Unit="units" Internal="pixel540" Type="F" Min="0.00000000e+00" Max="2.55000000e+02"/>
    <Variable VarIndex="310" Expression="pixel541" Label="pixel541" Title="pixel541" Unit="units" Internal="pixel541" Type="F" Min="0.00000000e+00" Max="2.55000000e+02"/>
    <Variable VarIndex="311" Expression="pixel542" Label="pixel542" Title="pixel542" Unit="units" Internal="pixel542" Type="F" Min="0.00000000e+00" Max="2.55000000e+02"/>
    <Variable VarIndex="312" Expression="pixel543" Label="pixel543" Title="pixel543" Unit="units" Internal="pixel543" Type="F" Min="0.00000000e+00" Max="2.55000000e+02"/>
    <Variable VarIndex="313" Expression="pixel544" Label="pixel544" Title="pixel544" Unit="units" Internal="pixel544" Type="F" Min="0.00000000e+00" Max="2.55000000e+02"/>
    <Variable VarIndex="314" Expression="pixel545" Label="pixel545" Title="pixel545" Unit="units" Internal="pixel545" Type="F" Min="0.00000000e+00" Max="2.55000000e+02"/>
    <Variable VarIndex="315" Expression="pixel546" Label="pixel546" Title="pixel546" Unit="units" Internal="pixel546" Type="F" Min="0.00000000e+00" Max="2.55000000e+02"/>
    <Variable VarIndex="316" Expression="pixel547" Label="pixel547" Title="pixel547" Unit="units" Internal="pixel547" Type="F" Min="0.00000000e+00" Max="2.55000000e+02"/>
    <Variable VarIndex="317" Expression="pixel548" Label="pixel548" Title="pixel548" Unit="units" Internal="pixel548" Type="F" Min="0.00000000e+00" Max="2.55000000e+02"/>
    <Variable VarIndex="318" Expression="pixel549" Label="pixel549" Title="pixel549" Unit="units" Internal="pixel549" Type="F" Min="0.00000000e+00" Max="2.55000000e+02"/>
    <Variable VarIndex="319" Expression="pixel550" Label="pixel550" Title="pixel550" Unit="units" Internal="pixel550" Type="F" Min="0.00000000e+00" Max="2.55000000e+02"/>
    <Variable VarIndex="320" Expression="pixel551" Label="pixel551" Title="pixel551" Unit="units" Internal="pixel551" Type="F" Min="0.00000000e+00" Max="2.55000000e+02"/>
    <Variable VarIndex="321" Expression="pixel552" Label="pixel552" Title="pixel552" Unit="units" Internal="pixel552" Type="F" Min="0.00000000e+00" Max="2.55000000e+02"/>
    <Variable VarIndex="322" Expression="pixel553" Label="pixel553" Title="pixel553" Unit="units" Internal="pixel553" Type="F" Min="0.00000000e+00" Max="2.55000000e+02"/>
    <Variable VarIndex="323" Expression="pixel554" Label="pixel554" Title="pixel554" Unit="units" Internal="pixel554" Type="F" Min="0.00000000e+00" Max="2.55000000e+02"/>
    <Variable VarIndex="324" Expression="pixel555" Label="pixel555" Title="pixel555" Unit="units" Internal="pixel555" Type="F" Min="0.00000000e+00" Max="2.55000000e+02"/>
    <Variable VarIndex="325" Expression="pixel556" Label="pixel556" Title="pixel556" Unit="units" Internal="pixel556" Type="F" Min="0.00000000e+00" Max="2.55000000e+02"/>
    <Variable VarIndex="326" Expression="pixel565" Label="pixel565" Title="pixel565" Unit="units" Internal="pixel565" Type="F" Min="0.00000000e+00" Max="2.55000000e+02"/>
    <Variable VarIndex="327" Expression="pixel566" Label="pixel566" Title="pixel566" Unit="units" Internal="pixel566" Type="F" Min="0.00000000e+00" Max="2.55000000e+02"/>
    <Variable VarIndex="328" Expression="pixel567" Label="pixel567" Title="pixel567" Unit="units" Internal="pixel567" Type="F" Min="0.00000000e+00" Max="2.55000000e+02"/>
    <Variable VarIndex="329" Expression="pixel568" Label="pixel568" Title="pixel568" Unit="units" Internal="pixel568" Type="F" Min="0.00000000e+00" Max="2.55000000e+02"/>
    <Variable VarIndex="330" Expression="pixel569" Label="pixel569" Title="pixel569" Unit="units" Internal="pixel569" Type="F" Min="0.00000000e+00" Max="2.55000000e+02"/>
    <Variable VarIndex="331" Expression="pixel570" Label="pixel570" Title="pixel570" Unit="units" Internal="pixel570" Type="F" Min="0.00000000e+00" Max="2.55000000e+02"/>
    <Variable VarIndex="332" Expression="pixel571" Label="pixel571" Title="pixel571" Unit="units" Internal="pixel571" Type="F" Min="0.00000000e+00" Max="2.55000000e+02"/>
    <Variable VarIndex="333" Expression="pixel572" Label="pixel572" Title="pixel572" Unit="units" Internal="pixel572" Type="F" Min="0.00000000e+00" Max="2.55000000e+02"/>
    <Variable VarIndex="334" Expression="pixel573" Label="pixel573" Title="pixel573" Unit="units" Internal="pixel573" Type="F" Min="0.00000000e+00" Max="2.55000000e+02"/>
    <Variable VarIndex="335" Expression="pixel574" Label="pixel574" Title="pixel574" Unit="units" Internal="pixel574" Type="F" Min="0.00000000e+00" Max="2.55000000e+02"/>
    <Variable VarIndex="336" Expression="pixel575" Label="pixel575" Title="pixel575" Unit="units" Internal="pixel575" Type="F" Min="0.00000000e+00" Max="2.55000000e+02"/>
    <Variable VarIndex="337" Expression="pixel576" Label="pixel576" Title="pixel576" Unit="units" Internal="pixel576" Type="F" Min="0.00000000e+00" Max="2.55000000e+02"/>
    <Variable VarIndex="338" Expression="pixel577" Label="pixel577" Title="pixel577" Unit="units" Internal="pixel577" Type="F" Min="0.00000000e+00" Max="2.55000000e+02"/>
    <Variable VarIndex="339" Expression="pixel578" Label="pixel578" Title="pixel578" Unit="units" Internal="pixel578" Type="F" Min="0.00000000e+00" Max="2.55000000e+02"/>
    <Variable VarIndex="340" Expression="pixel579" Label="pixel579" Title="pixel579" Unit="units" Internal="pixel579" Type="F" Min="0.00000000e+00" Max="2.55000000e+02"/>
    <Variable VarIndex="341" Expression="pixel580" Label="pixel580" Title="pixel580" Unit="units" Internal="pixel580" Type="F" Min="0.00000000e+00" Max="2.55000000e+02"/>
    <Variable VarIndex="342" Expression="pixel581" Label="pixel581" Title="pixel581" Unit="units" Internal="pixel581" Type="F" Min="0.00000000e+00" Max="2.55000000e+02"/>
    <Variable VarIndex="343" Expression="pixel582" Label="pixel582" Title="pixel582" Unit="units" Internal="pixel582" Type="F" Min="0.00000000e+00" Max="2.55000000e+02"/>
    <Variable VarIndex="344" Expression="pixel583" Label="pixel583" Title="pixel583" Unit="units" Internal="pixel583" Type="F" Min="0.00000000e+00" Max="2.55000000e+02"/>
    <Variable VarIndex="345" Expression="pixel584" Label="pixel584" Title="pixel584" Unit="units" Internal="pixel584" Type="F" Min="0.00000000e+00" Max="2.55000000e+02"/>
    <Variable VarIndex="346" Expression="pixel592" Label="pixel592" Title="pixel592" Unit="units" Internal="pixel592" Type="F" Min="0.00000000e+00" Max="2.55000000e+02"/>
    <Variable VarIndex="347" Expression="pixel593" Label="pixel593" Title="pixel593" Unit="units" Internal="pixel593" Type="F" Min="0.00000000e+00" Max="2.55000000e+02"/>
    <Variable VarIndex="348" Expression="pixel594" Label="pixel594" Title="pixel594" Unit="units" Internal="pixel594" Type="F" Min="0.00000000e+00" Max="2.55000000e+02"/>
    <Variable VarIndex="349" Expression="pixel595" Label="pixel595" Title="pixel595" Unit="units" Internal="pixel595" Type="F" Min="0.00000000e+00" Max="2.55000000e+02"/>
    <Variable VarIndex="350" Expression="pixel596" Label="pixel596" Title="pixel596" Unit="units" Internal="pixel596" Type="F" Min="0.00000000e+00" Max="2.55000000e+02"/>
    <Variable VarIndex="351" Expression="pixel597" Label="pixel597" Title="pixel597" Unit="units" Internal="pixel597" Type="F" Min="0.00000000e+00" Max="2.55000000e+02"/>
    <Variable VarIndex="352" Expression="pixel598" Label="pixel598" Title="pixel598" Unit="units" Internal="pixel598" Type="F" Min="0.00000000e+00" Max="2.55000000e+02"/>
    <Variable VarIndex="353" Expression="pixel599" Label="pixel599" Title="pixel599" Unit="units" Internal="pixel599" Type="F" Min="0.00000000e+00" Max="2.55000000e+02"/>
    <Variable VarIndex="354" Expression="pixel600" Label="pixel600" Title="pixel600" Unit="units" Internal="pixel600" Type="F" Min="0.00000000e+00" Max="2.55000000e+02"/>
    <Variable VarIndex="355" Expression="pixel601" Label="pixel601" Title="pixel601" Unit="units" Internal="pixel601" Type="F" Min="0.00000000e+00" Max="2.55000000e+02"/>
    <Variable VarIndex="356" Expression="pixel602" Label="pixel602" Title="pixel602" Unit="units" Internal="pixel602" Type="F" Min="0.00000000e+00" Max="2.55000000e+02"/>
    <Variable VarIndex="357" Expression="pixel603" Label="pixel603" Title="pixel603" Unit="units" Internal="pixel603" Type="F" Min="0.00000000e+00" Max="2.55000000e+02"/>
    <Variable VarIndex="358" Expression="pixel604" Label="pixel604" Title="pixel604" Unit="units" Internal="pixel604" Type="F" Min="0.00000000e+00" Max="2.55000000e+02"/>
    <Variable VarIndex="359" Expression="pixel605" Label="pixel605" Title="pixel605" Unit="units" Internal="pixel605" Type="F" Min="0.00000000e+00" Max="2.55000000e+02"/>
    <Variable VarIndex="360" Expression="pixel606" Label="pixel606" Title="pixel606" Unit="units" Internal="pixel606" Type="F" Min="0.00000000e+00" Max="2.55000000e+02"/>
    <Variable VarIndex="361" Expression="pixel607" Label="pixel607" Title="pixel607" Unit="units" Internal="pixel607" Type="F" Min="0.00000000e+00" Max="2.55000000e+02"/>
    <Variable VarIndex="362" Expression="pixel608" Label="pixel608" Title="pixel608" Unit="units" Internal="pixel608" Type="F" Min="0.00000000e+00" Max="2.55000000e+02"/>
    <Variable VarIndex="363" Expression="pixel609" Label="pixel609" Title="pixel609" Unit="units" Internal="pixel609" Type="F" Min="0.00000000e+00" Max="2.55000000e+02"/>
    <Variable VarIndex="364" Expression="pixel610" Label="pixel610" Title="pixel610" Unit="units" Internal="pixel610" Type="F" Min="0.00000000e+00" Max="2.55000000e+02"/>
    <Variable VarIndex="365" Expression="pixel611" Label="pixel611" Title="pixel611" Unit="units" Internal="pixel611" Type="F" Min="0.00000000e+00" Max="2.55000000e+02"/>
    <Variable VarIndex="366" Expression="pixel621" Label="pixel621" Title="pixel621" Unit="units" Internal="pixel621" Type="F" Min="0.00000000e+00" Max="2.55000000e+02"/>
    <Variable VarIndex="367" Expression="pixel622" Label="pixel622" Title="pixel622" Unit="units" Internal="pixel622" Type="F" Min="0.00000000e+00" Max="2.55000000e+02"/>
    <Variable VarIndex="368" Expression="pixel623" Label="pixel623" Title="pixel623" Unit="units" Internal="pixel623" Type="F" Min="0.00000000e+00" Max="2.55000000e+02"/>
    <Variable VarIndex="369" Expression="pixel624" Label="pixel624" Title="pixel624" Unit="units" Internal="pixel624" Type="F" Min="0.00000000e+00" Max="2.55000000e+02"/>
    <Variable VarIndex="370" Expression="pixel625" Label="pixel625" Title="pixel625" Unit="units" Internal="pixel625" Type="F" Min="0.00000000e+00" Max="2.55000000e+02"/>
    <Variable VarIndex="371" Expression="pixel626" Label="pixel626" Title="pixel626" Unit="units" Internal="pixel626" Type="F" Min="0.00000000e+00" Max="2.55000000e+02"/>
    <Variable VarIndex="372" Expression="pixel627" Label="pixel627" Title="pixel627" Unit="units" Internal="pixel627" Type="F" Min="0.00000000e+00" Max="2.55000000e+02"/>
    <Variable VarIndex="373" Expression="pixel628" Label="pixel628" Title="pixel628" Unit="units" Internal="pixel628" Type="F" Min="0.00000000e+00" Max="2.55000000e+02"/>
    <Variable VarIndex="374" Expression="pixel629" Label="pixel629" Title="pixel629" Unit="units" Internal="pixel629" Type="F" Min="0.00000000e+00" Max="2.55000000e+02"/>
    <Variable VarIndex="375" Expression="pixel630" Label="pixel630" Title="pixel630" Unit="units" Internal="pixel630" Type="F" Min="0.00000000e+00" Max="2.55000000e+02"/>
    <Variable VarIndex="376" Expression="pixel631" Label="pixel631" Title="pixel631" Unit="units" Internal="pixel631" Type="F" Min="0.00000000e+00" Max="2.55000000e+02"/>
    <Variable VarIndex="377" Expression="pixel632" Label="pixel632" Title="pixel632" Unit="units" Internal="pixel632" Type="F" Min="0.00000000e+00" Max="2.55000000e+02"/>
    <Variable VarIndex="378" Expression="pixel633" Label="pixel633" Title="pixel633" Unit="units" Internal="pixel633" Type="F" Min="0.00000000e+00" Max="2.55000000e+02"/>
    <Variable VarIndex="379" Expression="pixel634" Label="pixel634" Title="pixel634" Unit="units" Internal="pixel634" Type="F" Min="0.00000000e+00" Max="2.55000000e+02"/>
    <Variable VarIndex="380" Expression="pixel635" Label="pixel635" Title="pixel635" Unit="units" Internal="pixel635" Type="F" Min="0.00000000e+00" Max="2.55000000e+02"/>
    <Variable VarIndex="381" Expression="pixel636" Label="pixel636" Title="pixel636" Unit="units" Internal="pixel636" Type="F" Min="0.00000000e+00" Max="2.55000000e+02"/>
    <Variable VarIndex="382" Expression="pixel637" Label="pixel637" Title="pixel637" Unit="units" Internal="pixel637" Type="F" Min="0.00000000e+00" Max="2.55000000e+02"/>
    <Variable VarIndex="383" Expression="pixel638" Label="pixel638" Title="pixel638" Unit="units" Internal="pixel638" Type="F" Min="0.00000000e+00" Max="2.55000000e+02"/>
    <Variable VarIndex="384" Expression="pixel639" Label="pixel639" Title="pixel639" Unit="units" Internal="pixel639" Type="F" Min="0.00000000e+00" Max="2.55000000e+02"/>
    <Variable VarIndex="385" Expression="pixel649" Label="pixel649" Title="pixel649" Unit="units" Internal="pixel649" Type="F" Min="0.00000000e+00" Max="2.55000000e+02"/>
    <Variable VarIndex="386" Expression="pixel650" Label="pixel650" Title="pixel650" Unit="units" Internal="pixel650" Type="F" Min="0.00000000e+00" Max="2.55000000e+02"/>
    <Variable VarIndex="387" Expression="pixel651" Label="pixel651" Title="pixel651" Unit="units" Internal="pixel651" Type="F" Min="0.00000000e+00" Max="2.55000000e+02"/>
    <Variable VarIndex="388" Expression="pixel652" Label="pixel652" Title="pixel652" Unit="units" Internal="pixel652" Type="F" Min="0.00000000e+00" Max="2.55000000e+02"/>
    <Variable VarIndex="389" Expression="pixel653" Label="pixel653" Title="pixel653" Unit="units" Internal="pixel653" Type="F" Min="0.00000000e+00" Max="2.55000000e+02"/>
    <Variable VarIndex="390" Expression="pixel654" Label="pixel654" Title="pixel654" Unit="units" Internal="pixel654" Type="F" Min="0.00000000e+00" Max="2.55000000e+02"/>
    <Variable VarIndex="391" Expression="pixel655" Label="pixel655" Title="pixel655" Unit="units" Internal="pixel655" Type="F" Min="0.00000000e+00" Max="2.55000000e+02"/>
    <Variable VarIndex="392" Expression="pixel656" Label="pixel656" Title="pixel656" Unit="units" Internal="pixel656" Type="F" Min="0.00000000e+00" Max="2.55000000e+02"/>
    <Variable VarIndex="393" Expression="pixel657" Label="pixel657" Title="pixel657" Unit="units" Internal="pixel657" Type="F" Min="0.00000000e+00" Max="2.55000000e+02"/>
    <Variable VarIndex="394" Expression="pixel658" Label="pixel658" Title="pixel658" Unit="units" Internal="pixel658" Type="F" Min="0.00000000e+00" Max="2.55000000e+02"/>
    <Variable VarIndex="395" Expression="pixel659" Label="pixel659" Title="pixel659" Unit="units" Internal="pixel659" Type="F" Min="0.00000000e+00" Max="2.55000000e+02"/>
    <Variable VarIndex="396" Expression="pixel660" Label="pixel660" Title="pixel660" Unit="units" Internal="pixel660" Type="F" Min="0.00000000e+00" Max="2.55000000e+02"/>
    <Variable VarIndex="397" Expression="pixel661" Label="pixel661" Title="pixel661" Unit="units" Internal="pixel661" Type="F" Min="0.00000000e+00" Max="2.55000000e+02"/>
    <Variable VarIndex="398" Expression="pixel662" Label="pixel662" Title="pixel662" Unit="units" Internal="pixel662" Type="F" Min="0.00000000e+00" Max="2.55000000e+02"/>
    <Variable VarIndex="399" Expression="pixel663" Label="pixel663" Title="pixel663" Unit="units" Internal="pixel663" Type="F" Min="0.00000000e+00" Max="2.55000000e+02"/>
    <Variable VarIndex="400" Expression="pixel664" Label="pixel664" Title="pixel664" Unit="units" Internal="pixel664" Type="F" Min="0.00000000e+00" Max="2.55000000e+02"/>
    <Variable VarIndex="401" Expression="pixel665" Label="pixel665" Title="pixel665" Unit="units" Internal="pixel665" Type="F" Min="0.00000000e+00" Max="2.55000000e+02"/>
    <Variable VarIndex="402" Expression="pixel666" Label="pixel666" Title="pixel666" Unit="units" Internal="pixel666" Type="F" Min="0.00000000e+00" Max="2.55000000e+02"/>
    <Variable VarIndex="403" Expression="pixel678" Label="pixel678" Title="pixel678" Unit="units" Internal="pixel678" Type="F" Min="0.00000000e+00" Max="2.55000000e+02"/>
    <Variable VarIndex="404" Expression="pixel679" Label="pixel679" Title="pixel679" Unit="units" Internal="pixel679" Type="F" Min="0.00000000e+00" Max="2.55000000e+02"/>
    <Variable VarIndex="405" Expression="pixel680" Label="pixel680" Title="pixel680" Unit="units" Internal="pixel680" Type="F" Min="0.00000000e+00" Max="2.55000000e+02"/>
    <Variable VarIndex="406" Expression="pixel681" Label="pixel681" Title="pixel681" Unit="units" Internal="pixel681" Type="F" Min="0.00000000e+00" Max="2.55000000e+02"/>
    <Variable VarIndex="407" Expression="pixel682" Label="pixel682" Title="pixel682" Unit="units" Internal="pixel682" Type="F" Min="0.00000000e+00" Max="2.55000000e+02"/>
    <Variable VarIndex="408" Expression="pixel683" Label="pixel683" Title="pixel683" Unit="units" Internal="pixel683" Type="F" Min="0.00000000e+00" Max="2.55000000e+02"/>
    <Variable VarIndex="409" Expression="pixel684" Label="pixel684" Title="pixel684" Unit="units" Internal="pixel684" Type="F" Min="0.00000000e+00" Max="2.55000000e+02"/>
    <Variable VarIndex="410" Expression="pixel685" Label="pixel685" Title="pixel685" Unit="units" Internal="pixel685" Type="F" Min="0.00000000e+00" Max="2.55000000e+02"/>
    <Variable VarIndex="411" Expression="pixel686" Label="pixel686" Title="pixel686" Unit="units" Internal="pixel686" Type="F" Min="0.00000000e+00" Max="2.55000000e+02"/>
    <Variable VarIndex="412" Expression="pixel687" Label="pixel687" Title="pixel687" Unit="units" Internal="pixel687" Type="F" Min="0.00000000e+00" Max="2.55000000e+02"/>
    <Variable VarIndex="413" Expression="pixel688" Label="pixel688" Title="pixel688" Unit="units" Internal="pixel688" Type="F" Min="0.00000000e+00" Max="2.55000000e+02"/>
    <Variable VarIndex="414" Expression="pixel689" Label="pixel689" Title="pixel689" Unit="units" Internal="pixel689" Type="F" Min="0.00000000e+00" Max="2.55000000e+02"/>
    <Variable VarIndex="415" Expression="pixel690" Label="pixel690" Title="pixel690" Unit="units" Internal="pixel690" Type="F" Min="0.00000000e+00" Max="2.55000000e+02"/>
    <Variable VarIndex="416" Expression="pixel691" Label="pixel691" Title="pixel691" Unit="units" Internal="pixel691" Type="F" Min="0.00000000e+00" Max="2.55000000e+02"/>
    <Variable VarIndex="417" Expression="pixel692" Label="pixel692" Title="pixel692" Unit="units" Internal="pixel692" Type="F" Min="0.00000000e+00" Max="2.55000000e+02"/>
    <Variable VarIndex="418" Expression="pixel693" Label="pixel693" Title="pixel693" Unit="units" Internal="pixel693" Type="F" Min="0.00000000e+00" Max="2.55000000e+02"/>
    <Variable VarIndex="419" Expression="pixel694" Label="pixel694" Title="pixel694" Unit="units" Internal="pixel694" Type="F" Min="0.00000000e+00" Max="2.55000000e+02"/>
    <Variable VarIndex="420" Expression="pixel709" Label="pixel709" Title="pixel709" Unit="units" Internal="pixel709" Type="F" Min="0.00000000e+00" Max="2.55000000e+02"/>
    <Variable VarIndex="421" Expression="pixel710" Label="pixel710" Title="pixel710" Unit="units" Internal="pixel710" Type="F" Min="0.00000000e+00" Max="2.55000000e+02"/>
    <Variable VarIndex="422" Expression="pixel711" Label="pixel711" Title="pixel711" Unit="units" Internal="pixel711" Type="F" Min="0.00000000e+00" Max="2.55000000e+02"/>
    <Variable VarIndex="423" Expression="pixel712" Label="pixel712" Title="pixel712" Unit="units" Internal="pixel712" Type="F" Min="0.00000000e+00" Max="2.55000000e+02"/>
    <Variable VarIndex="424" Expression="pixel713" Label="pixel713" Title="pixel713" Unit="units" Internal="pixel713" Type="F" Min="0.00000000e+00" Max="2.55000000e+02"/>
    <Variable VarIndex="425" Expression="pixel714" Label="pixel714" Title="pixel714" Unit="units" Internal="pixel714" Type="F" Min="0.00000000e+00" Max="2.55000000e+02"/>
    <Variable VarIndex="426" Expression="pixel715" Label="pixel715" Title="pixel715" Unit="units" Internal="pixel715" Type="F" Min="0.00000000e+00" Max="2.55000000e+02"/>
    <Variable VarIndex="427" Expression="pixel716" Label="pixel716" Title="pixel716" Unit="units" Internal="pixel716" Type="F" Min="0.00000000e+00" Max="2.55000000e+02"/>
    <Variable VarIndex="428" Expression="pixel719" Label="pixel719" Title="pixel719" Unit="units" Internal="pixel719" Type="F" Min="0.00000000e+00" Max="2.55000000e+02"/>
    <Variable VarIndex="429" Expression="pixel720" Label="pixel720" Title="pixel720" Unit="units" Internal="pixel720" Type="F" Min="0.00000000e+00" Max="2.55000000e+02"/>
  </Variables>
  <Spectators NSpec="0"/>
  <Classes NClass="2">
    <Class Name="Background" Index="0"/>
    <Class Name="Signal" Index="1"/>
  </Classes>
  <Transformations NTransformations="0"/>
  <MVAPdfs/>
  <Weights NTrees="800" AnalysisType="0">
    <BinaryTree type="DecisionTree" boostWeight="6.7448264371673750e-01" itree="0">
      <Node pos="s" depth="0" NCoef="0" IVar="168" Cut="1.2142857551574707e+01" cType="0" res="-9.9000000000000000e+01" rms="0.0000000000000000e+00" purity="5.0000000000000000e-01" nType="0">
        <Node pos="l" depth="1" NCoef="0" IVar="198" Cut="1.2142857551574707e+01" cType="0" res="-9.9000000000000000e+01" rms="0.0000000000000000e+00" purity="6.3616704940795898e-01" nType="0">
          <Node pos="l" depth="2" NCoef="0" IVar="129" Cut="1.2142857551574707e+01" cType="0" res="-9.9000000000000000e+01" rms="0.0000000000000000e+00" purity="7.8907036781311035e-01" nType="0">
            <Node pos="l" depth="3" NCoef="0" IVar="-1" Cut="0.0000000000000000e+00" cType="1" res="-9.9000000000000000e+01" rms="0.0000000000000000e+00" purity="9.3185150623321533e-01" nType="1"/>
            <Node pos="r" depth="3" NCoef="0" IVar="-1" Cut="0.0000000000000000e+00" cType="1" res="-9.9000000000000000e+01" rms="0.0000000000000000e+00" purity="4.9657166004180908e-01" nType="-1"/>
          </Node>
          <Node pos="r" depth="2" NCoef="0" IVar="352" Cut="1.2142857551574707e+01" cType="0" res="-9.9000000000000000e+01" rms="0.0000000000000000e+00" purity="2.7726340293884277e-01" nType="0">
            <Node pos="l" depth="3" NCoef="0" IVar="-1" Cut="0.0000000000000000e+00" cType="1" res="-9.9000000000000000e+01" rms="0.0000000000000000e+00" purity="5.2153563499450684e-01" nType="1"/>
            <Node pos="r" depth="3" NCoef="0" IVar="-1" Cut="0.0000000000000000e+00" cType="1" res="-9.9000000000000000e+01" rms="0.0000000000000000e+00" purity="1.8317516148090363e-01" nType="-1"/>
          </Node>
        </Node>
        <Node pos="r" depth="1" NCoef="0" IVar="-1" Cut="1.3357142639160156e+02" cType="0" res="-9.9000000000000000e+01" rms="0.0000000000000000e+00" purity="1.5675315260887146e-01" nType="-1"/>
      </Node>
    </BinaryTree>
    <BinaryTree type="DecisionTree" boostWeight="5.8346660334998945e-01" itree="1">
      <Node pos="s" depth="0" NCoef="0" IVar="189" Cut="2.4285715103149414e+01" cType="0" res="-9.9000000000000000e+01" rms="0.0000000000000000e+00" purity="5.4143953323364258e-01" nType="0">
        <Node pos="l" depth="1" NCoef="0" IVar="198" Cut="1.2142857551574707e+01" cType="0" res="-9.9000000000000000e+01" rms="0.0000000000000000e+00" purity="6.5690994262695312e-01" nType="0">
          <Node pos="l" depth="2" NCoef="0" IVar="-1" Cut="1.2142857551574707e+01" cType="0" res="-9.9000000000000000e+01" rms="0.0000000000000000e+00" purity="7.7644366025924683e-01" nType="1"/>
          <Node pos="r" depth="2" NCoef="0" IVar="197" Cut="1.2142857551574707e+01" cType="0" res="-9.9000000000000000e+01" rms="0.0000000000000000e+00" purity="3.4843572974205017e-01" nType="0">
            <Node pos="l" depth="3" NCoef="0" IVar="-1" Cut="0.0000000000000000e+00" cType="1" res="-9.9000000000000000e+01" rms="0.0000000000000000e+00" purity="5.0663924217224121e-01" nType="1"/>
            <Node pos="r" depth="3" NCoef="0" IVar="-1" Cut="0.0000000000000000e+00" cType="1" res="-9.9000000000000000e+01" rms="0.0000000000000000e+00" purity="2.4018213152885437e-01" nType="-1"/>
          </Node>
        </Node>
        <Node pos="r" depth="1" NCoef="0" IVar="170" Cut="8.5000000000000000e+01" cType="0" res="-9.9000000000000000e+01" rms="0.0000000000000000e+00" purity="1.9876900315284729e-01" nType="0">
          <Node pos="l" depth="2" NCoef="0" IVar="107" Cut="7.2857139587402344e+01" cType="1" res="-9.9000000000000000e+01" rms="0.0000000000000000e+00" purity="3.5425180196762085e-01" nType="0">
            <Node pos="l" depth="3" NCoef="0" IVar="-1" Cut="0.0000000000000000e+00" cType="1" res="-9.9000000000000000e+01" rms="0.0000000000000000e+00" purity="5.4688686132431030e-01" nType="1"/>
            <Node pos="r" depth="3" NCoef="0" IVar="-1" Cut="0.0000000000000000e+00" cType="1" res="-9.9000000000000000e+01" rms="0.0000000000000000e+00" purity="1.6240772604942322e-01" nType="-1"/>
          </Node>
          <Node pos="r" depth="2" NCoef="0" IVar="-1" Cut="1.2142857551574707e+01" cType="0" res="-9.9000000000000000e+01" rms="0.0000000000000000e+00" purity="8.9845933020114899e-02" nType="-1"/>
        </Node>
      </Node>
    </BinaryTree>
    <BinaryTree type="DecisionTree" boostWeight="5.9736464775671660e-01" itree="2">
      <Node pos="s" depth="0" NCoef="0" IVar="166" Cut="1.2142857551574707e+01" cType="0" res="-9.9000000000000000e+01" rms="0.0000000000000000e+00" purity="4.9010112881660461e-01" nType="0">
        <Node pos="l" depth="1" NCoef="0" IVar="170" Cut="1.2142857551574707e+01" cType="0" res="-9.9000000000000000e+01" rms="0.0000000000000000e+00" purity="6.0573315620422363e-01" nType="0">
          <Node pos="l" depth="2" NCoef="0" IVar="176" Cut="1.2142857551574707e+01" cType="0" res="-9.9000000000000000e+01" rms="0.0000000000000000e+00" purity="7.4847704172134399e-01" nType="0">
            <Node pos="l" depth="3" NCoef="0" IVar="-1" Cut="0.0000000000000000e+00" cType="1" res="-9.9000000000000000e+01" rms="0.0000000000000000e+00" purity="8.5149204730987549e-01" nType="1"/>
            <Node pos="r" depth="3" NCoef="0" IVar="-1" Cut="0.0000000000000000e+00" cType="1" res="-9.9000000000000000e+01" rms="0.0000000000000000e+00" purity="4.5104470849037170e-01" nType="-1"/>
          </Node>
          <Node pos="r" depth="2" NCoef="0" IVar="108" Cut="3.6428569793701172e+01" cType="0" res="-9.9000000000000000e+01" rms="0.0000000000000000e+00" purity="3.6418911814689636e-01" nType="0">
            <Node pos="l" depth="3" NCoef="0" IVar="-1" Cut="0.0000000000000000e+00" cType="1" res="-9.9000000000000000e+01" rms="0.0000000000000000e+00" purity="6.4554625749588013e-01" nType="1"/>
            <Node pos="r" depth="3" NCoef="0" IVar="-1" Cut="0.0000000000000000e+00" cType="1" res="-9.9000000000000000e+01" rms="0.0000000000000000e+00" purity="1.7982326447963715e-01" nType="-1"/>
          </Node>
        </Node>
        <Node pos="r" depth="1" NCoef="0" IVar="169" Cut="1.2142857551574707e+01" cType="0" res="-9.9000000000000000e+01" rms="0.0000000000000000e+00" purity="2.6088690757751465e-01" nType="0">
          <Node pos="l" depth="2" NCoef="0" IVar="198" Cut="6.0714286804199219e+01" cType="0" res="-9.9000000000000000e+01" rms="0.0000000000000000e+00" purity="3.5788872838020325e-01" nType="0">
            <Node pos="l" depth="3" NCoef="0" IVar="-1" Cut="0.0000000000000000e+00" cType="1" res="-9.9000000000000000e+01" rms="0.0000000000000000e+00" purity="5.5556815862655640e-01" nType="1"/>
            <Node pos="r" depth="3" NCoef="0" IVar="-1" Cut="0.0000000000000000e+00" cType="1" res="-9.9000000000000000e+01" rms="0.0000000000000000e+00" purity="1.9334685802459717e-01" nType="-1"/>
          </Node>
          <Node pos="r" depth="2" NCoef="0" IVar="-1" Cut="3.6428569793701172e+01" cType="0" res="-9.9000000000000000e+01" rms="0.0000000000000000e+00" purity="7.6557271182537079e-02" nType="-1"/>
        </Node>
      </Node>
    </BinaryTree>
    <BinaryTree type="DecisionTree" boostWeight="5.6973246033346170e-01" itree="3">
      <Node pos="s" depth="0" NCoef="0" IVar="211" Cut="1.2142857551574707e+01" cType="0" res="-9.9000000000000000e+01" rms="0.0000000000000000e+00" purity="4.8558536171913147e-01" nType="0">
        <Node pos="l" depth="1" NCoef="0" IVar="142" Cut="1.2142857551574707e+01" cType="0" res="-9.9000000000000000e+01" rms="0.0000000000000000e+00" purity="5.5740267038345337e-01" nType="0">
          <Node pos="l" depth="2" NCoef="0" IVar="105" Cut="7.2857139587402344e+01" cType="1" res="-9.9000000000000000e+01" rms="0.0000000000000000e+00" purity="6.9382792711257935e-01" nType="0">
            <Node pos="l" depth="3" NCoef="0" IVar="-1" Cut="0.0000000000000000e+00" cType="1" res="-9.9000000000000000e+01" rms="0.0000000000000000e+00" purity="8.3346760272979736e-01" nType="1"/>
            <Node pos="r" depth="3" NCoef="0" IVar="-1" Cut="0.0000000000000000e+00" cType="1" res="-9.9000000000000000e+01" rms="0.0000000000000000e+00" purity="3.9179795980453491e-01" nType="-1"/>
          </Node>
          <Node pos="r" depth="2" NCoef="0" IVar="103" Cut="2.4285715103149414e+01" cType="0" res="-9.9000000000000000e+01" rms="0.0000000000000000e+00" purity="3.8653013110160828e-01" nType="0">
            <Node pos="l" depth="3" NCoef="0" IVar="-1" Cut="0.0000000000000000e+00" cType="1" res="-9.9000000000000000e+01" rms="0.0000000000000000e+00" purity="7.1113657951354980e-01" nType="1"/>
            <Node pos="r" depth="3" NCoef="0" IVar="-1" Cut="0.0000000000000000e+00" cType="1" res="-9.9000000000000000e+01" rms="0.0000000000000000e+00" purity="2.6900783181190491e-01" nType="-1"/>
          </Node>
        </Node>
        <Node pos="r" depth="1" NCoef="0" IVar="-1" Cut="1.2142857551574707e+01" cType="1" res="-9.9000000000000000e+01" rms="0.0000000000000000e+00" purity="1.9580152630805969e-01" nType="-1"/>
      </Node>
    </BinaryTree>
    <BinaryTree type="DecisionTree" boostWeight="5.3000032855544266e-01" itree="4">
      <Node pos="s" depth="0" NCoef="0" IVar="170" Cut="1.2142857551574707e+01" cType="0" res="-9.9000000000000000e+01" rms="0.0000000000000000e+00" purity="5.1577550172805786e-01" nType="0">
        <Node pos="l" depth="1" NCoef="0" IVar="241" Cut="1.2142857551574707e+01" cType="0" res="-9.9000000000000000e+01" rms="0.0000000000000000e+00" purity="6.1696839332580566e-01" nType="0">
          <Node pos="l" depth="2" NCoef="0" IVar="-1" Cut="1.2142857551574707e+01" cType="0" res="-9.9000000000000000e+01" rms="0.0000000000000000e+00" purity="7.6056367158889771e-01" nType="1"/>
          <Node pos="r" depth="2" NCoef="0" IVar="93" Cut="1.2142857551574707e+01" cType="0" res="-9.9000000000000000e+01" rms="0.0000000000000000e+00" purity="4.7303861379623413e-01" nType="0">
            <Node pos="l" depth="3" NCoef="0" IVar="-1" Cut="0.0000000000000000e+00" cType="1" res="-9.9000000000000000e+01" rms="0.0000000000000000e+00" purity="6.9055467844009399e-01" nType="1"/>
            <Node pos="r" depth="3" NCoef="0" IVar="-1" Cut="0.0000000000000000e+00" cType="1" res="-9.9000000000000000e+01" rms="0.0000000000000000e+00" purity="2.6826742291450500e-01" nType="-1"/>
          </Node>
        </Node>
        <Node pos="r" depth="1" NCoef="0" IVar="230" Cut="3.6428569793701172e+01" cType="0" res="-9.9000000000000000e+01" rms="0.0000000000000000e+00" purity="3.3665478229522705e-01" nType="0">
          <Node pos="l" depth="2" NCoef="0" IVar="107" Cut="4.8571430206298828e+01" cType="0" res="-9.9000000000000000e+01" rms="0.0000000000000000e+00" purity="4.5036807656288147e-01" nType="0">
            <Node pos="l" depth="3" NCoef="0" IVar="-1" Cut="0.0000000000000000e+00" cType="1" res="-9.9000000000000000e+01" rms="0.0000000000000000e+00" purity="6.7567753791809082e-01" nType="1"/>
            <Node pos="r" depth="3" NCoef="0" IVar="-1" Cut="0.0000000000000000e+00" cType="1" res="-9.9000000000000000e+01" rms="0.0000000000000000e+00" purity="2.8237301111221313e-01" nType="-1"/>
          </Node>
          <Node pos="r" depth="2" NCoef="0" IVar="-1" Cut="4.8571430206298828e+01" cType="0" res="-9.9000000000000000e+01" rms="0.0000000000000000e+00" purity="1.6223871707916260e-01" nType="-1"/>
        </Node>
      </Node>
    </BinaryTree>
    <BinaryTree type="DecisionTree" boostWeight="4.9017161775591955e-01" itree="5">
      <Node pos="s" depth="0" NCoef="0" IVar="317" Cut="1.2142857551574707e+01" cType="1" res="-9.9000000000000000e+01" rms="0.0000000000000000e+00" purity="4.9791336059570312e-01" nType="0">
        <Node pos="l" depth="1" NCoef="0" IVar="144" Cut="1.2142857551574707e+01" cType="0" res="-9.9000000000000000e+01" rms="0.0000000000000000e+00" purity="5.8836120367050171e-01" nType="0">
          <Node pos="l" depth="2" NCoef="0" IVar="-1" Cut="1.2142857551574707e+01" cType="0" res="-9.9000000000000000e+01" rms="0.0000000000000000e+00" purity="7.1661281585693359e-01" nType="1"/>
          <Node pos="r" depth="2" NCoef="0" IVar="164" Cut="2.4285715103149414e+01" cType="0" res="-9.9000000000000000e+01" rms="0.0000000000000000e+00" purity="4.3194839358329773e-01" nType="0">
            <Node pos="l" depth="3" NCoef="0" IVar="-1" Cut="0.0000000000000000e+00" cType="1" res="-9.9000000000000000e+01" rms="0.0000000000000000e+00" purity="7.3974603414535522e-01" nType="1"/>
            <Node pos="r" depth="3" NCoef="0" IVar="-1" Cut="0.0000000000000000e+00" cType="1" res="-9.9000000000000000e+01" rms="0.0000000000000000e+00" purity="2.4702082574367523e-01" nType="-1"/>
          </Node>
        </Node>
        <Node pos="r" depth="1" NCoef="0" IVar="323" Cut="1.2142857551574707e+01" cType="0" res="-9.9000000000000000e+01" rms="0.0000000000000000e+00" purity="3.2492497563362122e-01" nType="0">
          <Node pos="l" depth="2" NCoef="0" IVar="-1" Cut="0.0000000000000000e+00" cType="1" res="-9.9000000000000000e+01" rms="0.0000000000000000e+00" purity="5.6591755151748657e-01" nType="1"/>
          <Node pos="r" depth="2" NCoef="0" IVar="-1" Cut="1.2142857551574707e+01" cType="1" res="-9.9000000000000000e+01" rms="0.0000000000000000e+00" purity="1.9898855686187744e-01" nType="-1"/>
        </Node>
      </Node>
    </BinaryTree>
    <BinaryTree type="DecisionTree" boostWeight="4.1611005340806945e-01" itree="6">
      <Node pos="s" depth="0" NCoef="0" IVar="149" Cut="1.2142857551574707e+01" cType="0" res="-9.9000000000000000e+01" rms="0.0000000000000000e+00" purity="4.7346466779708862e-01" nType="0">
        <Node pos="l" depth="1" NCoef="0" IVar="177" Cut="1.2142857551574707e+01" cType="0" res="-9.9000000000000000e+01" rms="0.0000000000000000e+00" purity="5.7333064079284668e-01" nType="0">
          <Node pos="l" depth="2" NCoef="0" IVar="-1" Cut="0.0000000000000000e+00" cType="1" res="-9.9000000000000000e+01" rms="0.0000000000000000e+00" purity="8.0231857299804688e-01" nType="1"/>
          <Node pos="r" depth="2" NCoef="0" IVar="151" Cut="2.4285714721679688e+02" cType="1" res="-9.9000000000000000e+01" rms="0.0000000000000000e+00" purity="4.5547565817832947e-01" nType="0">
            <Node pos="l" depth="3" NCoef="0" IVar="-1" Cut="0.0000000000000000e+00" cType="1" res="-9.9000000000000000e+01" rms="0.0000000000000000e+00" purity="5.6319046020507812e-01" nType="1"/>
            <Node pos="r" depth="3" NCoef="0" IVar="-1" Cut="0.0000000000000000e+00" cType="1" res="-9.9000000000000000e+01" rms="0.0000000000000000e+00" purity="3.2021245360374451e-01" nType="-1"/>
          </Node>
        </Node>
        <Node pos="r" depth="1" NCoef="0" IVar="251" Cut="1.2142857551574707e+01" cType="0" res="-9.9000000000000000e+01" rms="0.0000000000000000e+00" purity="3.5261702537536621e-01" nType="0">
          <Node pos="l" depth="2" NCoef="0" IVar="89" Cut="2.4285715103149414e+01" cType="0" res="-9.9000000000000000e+01" rms="0.0000000000000000e+00" purity="4.3689930438995361e-01" nType="0">
            <Node pos="l" depth="3" NCoef="0" IVar="-1" Cut="0.0000000000000000e+00" cType="1" res="-9.9000000000000000e+01" rms="0.0000000000000000e+00" purity="6.7644977569580078e-01" nType="1"/>
            <Node pos="r" depth="3" NCoef="0" IVar="-1" Cut="0.0000000000000000e+00" cType="1" res="-9.9000000000000000e+01" rms="0.0000000000000000e+00" purity="3.2759144902229309e-01" nType="-1"/>
          </Node>
          <Node pos="r" depth="2" NCoef="0" IVar="-1" Cut="8.5000000000000000e+01" cType="0" res="-9.9000000000000000e+01" rms="0.0000000000000000e+00" purity="1.9820538163185120e-01" nType="-1"/>
        </Node>
      </Node>
    </BinaryTree>
    <BinaryTree type="DecisionTree" boostWeight="3.9991570863683668e-01" itree="7">
      <Node pos="s" depth="0" NCoef="0" IVar="337" Cut="2.4285715103149414e+01" cType="1" res="-9.9000000000000000e+01" rms="0.0000000000000000e+00" purity="4.7582080960273743e-01" nType="0">
        <Node pos="l" depth="1" NCoef="0" IVar="139" Cut="1.2142857551574707e+01" cType="0" res="-9.9000000000000000e+01" rms="0.0000000000000000e+00" purity="5.3615337610244751e-01" nType="0">
          <Node pos="l" depth="2" NCoef="0" IVar="224" Cut="1.2142857551574707e+01" cType="0" res="-9.9000000000000000e+01" rms="0.0000000000000000e+00" purity="6.3407343626022339e-01" nType="0">
            <Node pos="l" depth="3" NCoef="0" IVar="-1" Cut="0.0000000000000000e+00" cType="1" res="-9.9000000000000000e+01" rms="0.0000000000000000e+00" purity="7.0752650499343872e-01" nType="1"/>
            <Node pos="r" depth="3" NCoef="0" IVar="-1" Cut="0.0000000000000000e+00" cType="1" res="-9.9000000000000000e+01" rms="0.0000000000000000e+00" purity="3.7347364425659180e-01" nType="-1"/>
          </Node>
          <Node pos="r" depth="2" NCoef="0" IVar="313" Cut="1.2142857551574707e+01" cType="0" res="-9.9000000000000000e+01" rms="0.0000000000000000e+00" purity="4.0696135163307190e-01" nType="0">
            <Node pos="l" depth="3" NCoef="0" IVar="-1" Cut="0.0000000000000000e+00" cType="1" res="-9.9000000000000000e+01" rms="0.0000000000000000e+00" purity="6.1294549703598022e-01" nType="1"/>
            <Node pos="r" depth="3" NCoef="0" IVar="-1" Cut="0.0000000000000000e+00" cType="1" res="-9.9000000000000000e+01" rms="0.0000000000000000e+00" purity="2.9217046499252319e-01" nType="-1"/>
          </Node>
        </Node>
        <Node pos="r" depth="1" NCoef="0" IVar="258" Cut="3.6428569793701172e+01" cType="1" res="-9.9000000000000000e+01" rms="0.0000000000000000e+00" purity="2.8926166892051697e-01" nType="0">
          <Node pos="l" depth="2" NCoef="0" IVar="100" Cut="3.6428569793701172e+01" cType="0" res="-9.9000000000000000e+01" rms="0.0000000000000000e+00" purity="4.1437548398971558e-01" nType="0">
            <Node pos="l" depth="3" NCoef="0" IVar="-1" Cut="0.0000000000000000e+00" cType="1" res="-9.9000000000000000e+01" rms="0.0000000000000000e+00" purity="5.0157976150512695e-01" nType="1"/>
            <Node pos="r" depth="3" NCoef="0" IVar="-1" Cut="0.0000000000000000e+00" cType="1" res="-9.9000000000000000e+01" rms="0.0000000000000000e+00" purity="2.8188773989677429e-01" nType="-1"/>
          </Node>
          <Node pos="r" depth="2" NCoef="0" IVar="-1" Cut="1.2142857360839844e+02" cType="0" res="-9.9000000000000000e+01" rms="0.0000000000000000e+00" purity="1.4881594479084015e-01" nType="-1"/>
        </Node>
      </Node>
    </BinaryTree>
    <BinaryTree type="DecisionTree" boostWeight="3.8951907733429958e-01" itree="8">
      <Node pos="s" depth="0" NCoef="0" IVar="212" Cut="8.5000000000000000e+01" cType="0" res="-9.9000000000000000e+01" rms="0.0000000000000000e+00" purity="4.6749377250671387e-01" nType="0">
        <Node pos="l" depth="1" NCoef="0" IVar="165" Cut="1.2142857551574707e+01" cType="0" res="-9.9000000000000000e+01" rms="0.0000000000000000e+00" purity="5.2843660116195679e-01" nType="0">
          <Node pos="l" depth="2" NCoef="0" IVar="207" Cut="2.1857142639160156e+02" cType="1" res="-9.9000000000000000e+01" rms="0.0000000000000000e+00" purity="6.1858701705932617e-01" nType="0">
            <Node pos="l" depth="3" NCoef="0" IVar="-1" Cut="0.0000000000000000e+00" cType="1" res="-9.9000000000000000e+01" rms="0.0000000000000000e+00" purity="7.0093721151351929e-01" nType="1"/>
            <Node pos="r" depth="3" NCoef="0" IVar="-1" Cut="0.0000000000000000e+00" cType="1" res="-9.9000000000000000e+01" rms="0.0000000000000000e+00" purity="3.8065555691719055e-01" nType="-1"/>
          </Node>
          <Node pos="r" depth="2" NCoef="0" IVar="124" Cut="4.8571430206298828e+01" cType="0" res="-9.9000000000000000e+01" rms="0.0000000000000000e+00" purity="4.1724941134452820e-01" nType="0">
            <Node pos="l" depth="3" NCoef="0" IVar="-1" Cut="0.0000000000000000e+00" cType="1" res="-9.9000000000000000e+01" rms="0.0000000000000000e+00" purity="6.1669266223907471e-01" nType="1"/>
            <Node pos="r" depth="3" NCoef="0" IVar="-1" Cut="0.0000000000000000e+00" cType="1" res="-9.9000000000000000e+01" rms="0.0000000000000000e+00" purity="2.9224443435668945e-01" nType="-1"/>
          </Node>
        </Node>
        <Node pos="r" depth="1" NCoef="0" IVar="257" Cut="2.1857142639160156e+02" cType="1" res="-9.9000000000000000e+01" rms="0.0000000000000000e+00" purity="3.0659589171409607e-01" nType="0">
          <Node pos="l" depth="2" NCoef="0" IVar="255" Cut="1.2142857551574707e+01" cType="0" res="-9.9000000000000000e+01" rms="0.0000000000000000e+00" purity="3.6351802945137024e-01" nType="0">
            <Node pos="l" depth="3" NCoef="0" IVar="-1" Cut="0.0000000000000000e+00" cType="1" res="-9.9000000000000000e+01" rms="0.0000000000000000e+00" purity="5.2803140878677368e-01" nType="1"/>
            <Node pos="r" depth="3" NCoef="0" IVar="-1" Cut="0.0000000000000000e+00" cType="1" res="-9.9000000000000000e+01" rms="0.0000000000000000e+00" purity="2.6984554529190063e-01" nType="-1"/>
          </Node>
          <Node pos="r" depth="2" NCoef="0" IVar="-1" Cut="0.0000000000000000e+00" cType="1" res="-9.9000000000000000e+01" rms="0.0000000000000000e+00" purity="1.3636791706085205e-01" nType="-1"/>
        </Node>
      </Node>
    </BinaryTree>
    <BinaryTree type="DecisionTree" boostWeight="2.9912739071010380e-01" itree="9">
      <Node pos="s" depth="0" NCoef="0" IVar="210" Cut="1.2142857551574707e+01" cType="0" res="-9.9000000000000000e+01" rms="0.0000000000000000e+00" purity="4.6554237604141235e-01" nType="0">
        <Node pos="l" depth="1" NCoef="0" IVar="331" Cut="1.2142857551574707e+01" cType="0" res="-9.9000000000000000e+01" rms="0.0000000000000000e+00" purity="5.2223479747772217e-01" nType="0">
          <Node pos="l" depth="2" NCoef="0" IVar="290" Cut="2.4285714721679688e+02" cType="1" res="-9.9000000000000000e+01" rms="0.0000000000000000e+00" purity="6.5163463354110718e-01" nType="0">
            <Node pos="l" depth="3" NCoef="0" IVar="-1" Cut="0.0000000000000000e+00" cType="1" res="-9.9000000000000000e+01" rms="0.0000000000000000e+00" purity="7.3016542196273804e-01" nType="1"/>
            <Node pos="r" depth="3" NCoef="0" IVar="-1" Cut="0.0000000000000000e+00" cType="1" res="-9.9000000000000000e+01" rms="0.0000000000000000e+00" purity="4.7215953469276428e-01" nType="-1"/>
          </Node>
          <Node pos="r" depth="2" NCoef="0" IVar="192" Cut="1.2142857551574707e+01" cType="0" res="-9.9000000000000000e+01" rms="0.0000000000000000e+00" purity="4.4231870770454407e-01" nType="0">
            <Node pos="l" depth="3" NCoef="0" IVar="-1" Cut="0.0000000000000000e+00" cType="1" res="-9.9000000000000000e+01" rms="0.0000000000000000e+00" purity="5.2429091930389404e-01" nType="1"/>
            <Node pos="r" depth="3" NCoef="0" IVar="-1" Cut="0.0000000000000000e+00" cType="1" res="-9.9000000000000000e+01" rms="0.0000000000000000e+00" purity="3.1904998421669006e-01" nType="-1"/>
          </Node>
        </Node>
        <Node pos="r" depth="1" NCoef="0" IVar="68" Cut="2.4285715103149414e+01" cType="1" res="-9.9000000000000000e+01" rms="0.0000000000000000e+00" purity="3.2459837198257446e-01" nType="0">
